Protein,0,1,2,3,4,5,6,7,8,9,10,11,12,13,14,15,16,17,18,19,20,21,22,23,24,25,26,27,28,29,30,31,32,33,34,35,36,37,38,39,40,41,42,43,44,45,46,47,48,49,50,51,52,53,54,55,56,57,58,59,60,61,62,63,64,65,66,67,68,69,70,71,72,73,74,75,76,77,78,79,80,81,82,83,84,85,86,87,88,89,90,91,92,93,94,95,96,97,98,99,100,101,102,103,104,105,106,107,108,109,110,111,112,113,114,115,116,117,118,119,120,121,122,123,124,125,126,127,128,129,130,131,132,133,134,135,136,137,138,139,140,141,142,143,144,145,146,147,148,149,150,151,152,153,154,155,156,157,158,159,160,161,162,163,164,165,166,167,168,169,170,171,172,173,174,175,176,177,178,179,180,181,182,183,184,185,186,187,188,189,190,191,192,193,194,195,196,197,198,199,200,201,202,203,204,205,206,207,208,209,210,211,212,213,214,215,216,217,218,219,220,221,222,223,224,225,226,227,228,229,230,231,232,233,234,235,236,237,238,239,240,241,242,243,244,245,246,247,248,249,250,251,252,253,254,255,256,257,258,259,260,261,262,263,264,265,266,267,268,269,270,271,272,273,274,275,276,277,278,279,280,281,282,283,284,285,286,287,288,289,290,291,292,293,294,295,296,297,298,299,300,301,302,303,304,305,306,307,308,309,310,311,312,313,314,315,316,317,318,319,320,321,322,323,324,325,326,327,328,329,330,331,332,333,334,335,336,337,338,339,340,341,342,343,344,345,346,347,348,349,350,351,352,353,354,355,356,357,358,359,360,361,362,363,364,365,366,367,368,369,370,371,372,373,374,375,376,377,378,379,380,381,382,383,384,385,386,387,388,389,390,391,392,393,394,395,396,397,398,399,400,401,402,403,404,405,406,407,408,409,410,411,412,413,414,415,416,417,418,419,420,421,422,423,424,425,426,427,428,429,430,431,432,433,434,435,436,437,438,439,440,441,442,443,444,445,446,447,448,449,450,451,452,453,454,455,456,457,458,459,460,461,462,463,464,465,466,467,468,469,470,471,472,473,474,475,476,477,478,479,480,481,482,483,484,485,486,487,488,489,490,491,492,493,494,495,496,497,498,499,500,501,502,503,504,505,506,507,508,509,510,511,512,513,514,515,516,517,518,519,520,521,522,523,524,525,526,527,528,529,530,531,532,533,534,535,536,537,538,539,540,541,542,543,544,545,546,547,548,549,550,551,552,553,554,555,556,557,558,559,560,561,562,563,564,565,566,567,568,569,570,571,572,573,574,575,576,577,578,579,580,581,582,583,584,585,586,587,588,589,590,591,592,593,594,595,596,597,598,599,600,601,602,603,604,605,606,607,608,609,610,611,612,613,614,615,616,617,618,619,620,621,622,623,624,625,626,627,628,629,630,631,632,633,634,635,636,637,638,639
NT,-0.04140472039580345,-0.20568184554576874,-0.14618071913719177,-0.08204668015241623,0.09773435443639755,0.049608711153268814,0.06502483040094376,0.03415514901280403,-0.008160379715263844,0.17148640751838684,0.15860360860824585,-0.11477703601121902,-0.12553127110004425,-0.054496292024850845,0.04262213408946991,-0.12128235399723053,0.0997423604130745,0.06862590461969376,-0.14420948922634125,0.06525950878858566,0.0030084997415542603,-0.13993524014949799,-0.02673347108066082,0.0751744732260704,0.14495602250099182,-0.15294696390628815,0.06953637301921844,0.010570577345788479,-0.09349701553583145,0.008118250407278538,0.1794394999742508,-0.20905417203903198,0.053236223757267,-0.1445595771074295,0.10486224293708801,0.08455390483140945,-0.0456324964761734,0.05908731371164322,-0.034971147775650024,0.011106261052191257,-0.04676155745983124,-0.11306518316268921,0.13480518758296967,-0.04950887709856033,0.1129826083779335,0.014777136966586113,0.03283293545246124,-0.1018938198685646,-0.13760346174240112,0.2198944091796875,0.2237282395362854,-0.17031317949295044,-0.015114707872271538,0.06031445041298866,0.16545484960079193,-0.06063035875558853,0.1752820909023285,-0.1640436351299286,0.0015312841860577464,0.022209808230400085,0.1261797994375229,-0.0738682821393013,-0.021318312734365463,0.10707519203424454,0.13594159483909607,0.1375715732574463,0.0008529978804290295,-0.06824442744255066,-0.18747174739837646,0.10147125273942947,0.0607248991727829,-0.07387611269950867,-0.022170932963490486,0.050090283155441284,-0.02770216390490532,0.004407564643770456,-0.04020117595791817,-0.01413226779550314,-0.082625612616539,0.22877630591392517,0.01650732196867466,0.2462676763534546,0.02048824168741703,0.10224033892154694,0.05352633446455002,0.0075358678586781025,0.10743176937103271,0.06321097165346146,0.019560405984520912,-0.17711611092090607,0.17760713398456573,-0.044339388608932495,-0.04740329831838608,0.038986243307590485,-0.013500770553946495,-0.13003063201904297,0.07687963545322418,0.10229706764221191,-0.1485195755958557,0.10653756558895111,-0.01088155061006546,0.03137531504034996,-0.006397342309355736,0.0706513300538063,0.019955843687057495,-0.06469739228487015,-0.1132708191871643,-0.11257146298885345,-0.018564261496067047,-0.010183596052229404,-0.10123355686664581,-0.04751629754900932,0.021818021312355995,-0.1070634052157402,0.030450230464339256,0.05783119797706604,0.056811537593603134,-0.03600206598639488,-0.004888790659606457,0.027878301218152046,-0.04156046733260155,-0.03134647756814957,0.013611230067908764,0.06272578239440918,0.006579592823982239,-0.08351386338472366,-0.04547404497861862,0.027848273515701294,0.033460382372140884,0.05525035038590431,0.15182335674762726,-0.053405795246362686,-0.1808575987815857,-0.010368875227868557,0.11496531963348389,0.15123768150806427,0.05951077118515968,-0.012405085377395153,-0.018734857439994812,0.012778970412909985,-0.06530451774597168,0.14376972615718842,0.013131693936884403,-0.08382213115692139,0.006219297181814909,0.0371110700070858,0.05328771099448204,-0.10997463017702103,0.00848463922739029,0.0697653666138649,0.09365304559469223,0.08041143417358398,-0.08426877111196518,-0.09682484716176987,-0.05584453418850899,-0.11644559353590012,-0.06234615296125412,0.04346202686429024,-0.1327778548002243,0.02414241060614586,0.039801258593797684,-0.1841934472322464,-0.004287991207093,0.06361785531044006,0.01950751058757305,0.12754802405834198,0.1494365632534027,-0.17245306074619293,0.08218542486429214,0.05643313005566597,-0.08449751138687134,-0.15807558596134186,-0.0286107137799263,-0.10017763823270798,0.09013655036687851,-0.06490547209978104,0.016451232135295868,-0.14190061390399933,0.058635491877794266,-0.006279518827795982,-0.3477467894554138,-0.09139585494995117,0.042675524950027466,-0.01386093720793724,0.06981077045202255,0.04323098435997963,-0.06072003021836281,0.0981556624174118,0.008811676874756813,0.02577810361981392,-0.12383504956960678,-0.11991158127784729,-0.004324699752032757,-0.03547997400164604,-0.006907881237566471,0.08135256916284561,0.011486135423183441,0.05460371822118759,0.03369663283228874,0.005482956767082214,0.05653034523129463,0.009438096545636654,-0.057417336851358414,0.09322066605091095,-0.09862060099840164,-0.22780504822731018,0.000454474677098915,-0.12978722155094147,-0.038790639489889145,-0.06762776523828506,-0.13722306489944458,-0.11775536835193634,0.02039920724928379,0.03471875190734863,0.22085696458816528,0.04053257405757904,0.14385178685188293,-0.05052109435200691,0.023067722097039223,0.0866079032421112,0.03951830416917801,0.15764877200126648,0.0014366739196702838,-0.046817705035209656,0.03611443564295769,0.012611620128154755,0.2229916900396347,-0.05628828704357147,-0.024235619232058525,-0.1814451515674591,-0.03305068984627724,0.030818209052085876,0.14007163047790527,-0.14076125621795654,-0.09031355381011963,-0.10429629683494568,0.07065403461456299,-0.14841310679912567,0.0066870274022221565,-0.07116710394620895,0.04026984050869942,0.07310879975557327,0.067807137966156,-0.0035398839972913265,-0.08404438197612762,0.06176405027508736,0.06352973729372025,0.001055155647918582,-0.030313070863485336,-0.017813734710216522,0.19180427491664886,0.14025354385375977,8.099916885839775e-05,-0.05317831411957741,-0.02798420935869217,-0.049151502549648285,-0.044496871531009674,0.051848649978637695,0.07793553918600082,0.032117392867803574,-0.07821480184793472,-0.007565587759017944,0.061718545854091644,-0.16743236780166626,0.09093248099088669,-0.08019637316465378,-0.02478753961622715,0.057136137038469315,-0.047195881605148315,-0.07840708643198013,0.05684153735637665,-0.010691761039197445,-0.07311919331550598,0.0822630375623703,-0.003168536117300391,0.13630610704421997,-0.04952345788478851,-0.09395898878574371,-0.04128752276301384,-2.58266019821167,0.0457659550011158,0.04445743188261986,-0.16112469136714935,-0.06855465471744537,0.12732292711734772,-0.06384661048650742,-0.044925641268491745,0.10057344287633896,-0.08861681818962097,0.035169702023267746,0.04248207435011864,0.41671714186668396,-0.014671589247882366,0.03775187209248543,0.043245334178209305,-0.012680322863161564,-0.03852378576993942,-0.012529409490525723,-0.028907572850584984,-0.15804839134216309,-0.0172745231539011,0.07232993841171265,0.05661031976342201,-0.049543268978595734,-0.008136186748743057,0.12076183408498764,0.01602691225707531,-0.07339544594287872,-0.007892065681517124,-0.1263573318719864,-0.04730542004108429,-0.14367669820785522,-0.0004977365024387836,0.11349289864301682,0.008373026736080647,-0.11844468116760254,0.21315829455852509,0.004888344556093216,-0.0989442840218544,0.06483200192451477,-0.005302106030285358,0.0725170448422432,-0.044408757239580154,-0.04013196751475334,0.021023601293563843,0.23677308857440948,0.1081538200378418,-0.036069102585315704,-0.13847248256206512,-0.0924459770321846,-0.07320069521665573,-0.05237028747797012,0.11920913308858871,-0.07938920706510544,0.09331254661083221,-0.016104185953736305,-0.13179372251033783,-0.08039634674787521,-0.17812375724315643,0.021301718428730965,-0.007380455732345581,-0.23314888775348663,-0.0756869986653328,-0.02423080801963806,-0.06096001714468002,-0.04823390394449234,-0.09583700448274612,-0.1057189479470253,-0.026172341778874397,-0.06587313860654831,-0.06283337622880936,-0.00868392363190651,0.014040200039744377,-0.2292560189962387,0.005518066231161356,0.002033143537119031,-0.004677523858845234,-0.020876653492450714,0.1715727299451828,0.022032074630260468,-0.10821805149316788,0.14895297586917877,0.06891745328903198,-0.015145010314881802,0.031570665538311005,-0.020983079448342323,-0.20897631347179413,0.09671444445848465,0.021960679441690445,-0.00145933055318892,-0.024072229862213135,-0.0559811145067215,-0.03041340783238411,-0.1511847823858261,0.08122824132442474,-0.0638047456741333,-0.061775047332048416,0.11815056204795837,0.025598207488656044,0.16502007842063904,0.002223213203251362,0.0390920527279377,0.17011310160160065,-0.04977960139513016,0.08751338720321655,-0.22711502015590668,0.12223653495311737,0.07585285604000092,0.21900202333927155,0.12208350747823715,-0.017543042078614235,0.03699648752808571,0.07172863930463791,-0.048872385174036026,0.009299206547439098,-0.09200911223888397,0.22602836787700653,-0.026132823899388313,-0.08764951676130295,-0.09863323718309402,-0.16141542792320251,-0.1348257064819336,-0.06661023944616318,-0.09770715236663818,-0.001487039146013558,0.08856447041034698,0.056759461760520935,-0.15340493619441986,0.033100660890340805,0.03494297340512276,0.02574736624956131,-0.003333830740302801,0.06333932280540466,0.0023076324723660946,0.0667153000831604,0.001656080479733646,-0.23998601734638214,0.0011727018281817436,0.011573784984648228,0.12986239790916443,0.10261136293411255,0.003777930047363043,-0.07492609322071075,-0.07649580389261246,0.05815424770116806,-0.1717618703842163,-0.03841269388794899,-0.09722244739532471,-0.1649661511182785,0.025599103420972824,-0.027669496834278107,0.003767950227484107,-0.07096236199140549,0.013650135137140751,-0.11419939249753952,-0.10251051932573318,0.1269134283065796,0.012465699575841427,-0.03706437721848488,0.03918915614485741,-0.060883089900016785,0.0827098861336708,0.07030045241117477,0.06291503459215164,0.1683291494846344,-0.018569765612483025,-0.09457177668809891,-0.07742796838283539,0.08274699002504349,-0.027331802994012833,-0.008331100456416607,-0.04438319057226181,0.024108799174427986,0.0037277115043252707,0.09109562635421753,-0.07708478718996048,-0.03755444288253784,-0.13020651042461395,0.09740100055932999,-0.13092270493507385,0.1772162914276123,-0.06843740493059158,-0.21073853969573975,0.13241806626319885,0.013753058388829231,0.19712232053279877,0.13686327636241913,-0.0020449727308005095,0.13238243758678436,0.0836145207285881,0.0329730324447155,-0.08198763430118561,0.0017137377290055156,0.03614974394440651,0.02760687656700611,0.13764111697673798,0.013129941187798977,0.06645247340202332,0.024976829066872597,-0.26496440172195435,0.23263289034366608,-0.08462308347225189,-0.06370969116687775,-0.0516703799366951,-0.047488827258348465,-0.036402784287929535,-0.07676780968904495,-0.11219554394483566,-0.004382031504064798,0.04342542961239815,-0.06004490330815315,0.01601715385913849,0.14177332818508148,0.25823774933815,0.016179103404283524,0.016249243170022964,-0.0036559721920639277,-0.09434617310762405,-0.0681273490190506,-0.08791352808475494,-0.11944735050201416,-0.12440524250268936,0.12196051329374313,-0.06605532020330429,0.07732316851615906,0.16864222288131714,-0.0705973282456398,0.1872866451740265,-0.0922245904803276,0.11206932365894318,0.02479727566242218,-0.054985061287879944,0.08156449347734451,-0.1496642380952835,-0.19518084824085236,0.03407257795333862,0.0440722219645977,-0.07554591447114944,-0.10979308933019638,0.03325517103075981,-0.1425202190876007,-0.019421441480517387,0.028485024347901344,-0.00200160825625062,0.10114990919828415,0.027461154386401176,0.017077574506402016,-0.13540537655353546,0.09230852127075195,-0.00885017216205597,0.129487544298172,0.18934138119220734,-0.22221240401268005,0.11937093734741211,0.02239510789513588,0.13402700424194336,0.03228617459535599,0.12791034579277039,-0.05406114086508751,0.07996340095996857,0.0432860292494297,0.11349627375602722,0.05560800060629845,-0.08552157133817673,-0.07332455366849899,0.034051548689603806,-0.04179542884230614,0.05970960855484009,-0.04139189049601555,0.09313269704580307,-0.05861692503094673,0.19671140611171722,0.015040052123367786,6.647141933441162,0.0431249625980854,0.043245527893304825,-0.17883139848709106,0.10447365790605545,-0.038668230175971985,-0.02869989536702633,0.10159780830144882,0.11346349865198135,0.001032702624797821,0.13321910798549652,0.025789039209485054,0.07218863815069199,0.008688381873071194,0.050209466367959976,0.046133220195770264,-0.00296471337787807,-0.006288265343755484,0.05794743075966835,-0.0713374987244606,0.010127672925591469,-0.056387707591056824,0.01435591746121645,-0.04252078756690025,0.07875458896160126,-0.016291087493300438,-0.019324462860822678,-0.057281382381916046,-0.133139505982399,-0.1786268800497055,0.06016496568918228,-0.12545199692249298,-0.040178652852773666,0.05742723122239113,-0.0538424588739872,0.03906939923763275,0.0035331929102540016,0.010444246232509613,0.03198441118001938,0.0356099009513855,-0.05205170810222626,-0.07439935207366943,-0.18824592232704163,-0.08320897817611694,-0.1703934371471405,-0.052937451750040054,-0.06428048014640808,0.047001004219055176,-0.036715924739837646,0.0386350154876709,-0.011022982187569141,-0.056074514985084534,0.02091228775680065,-0.1517786979675293,0.04816602170467377,0.0037930861581116915,-0.01660884916782379,-0.13458232581615448,0.2633655369281769,0.05705321207642555,-0.04567892849445343,-0.10191690921783447,-0.04519296810030937,0.03961199149489403,0.02863144315779209,0.10480912029743195,0.13094650208950043,-0.14638358354568481,0.037318166345357895,0.02266794815659523,-0.030599113553762436,-0.05640686675906181,-0.06575831025838852,-0.026742959395051003,-0.02547577954828739,0.06520320475101471,-0.0031271905172616243,-0.19207370281219482,-0.04093534126877785,-0.5654770135879517,-0.013608868233859539,-0.046896252781152725,0.19146187603473663,-0.08432891219854355,0.000613593147136271,-0.08133269846439362,0.04579043388366699
CT,-0.07181424647569656,-0.1818060278892517,-0.008995261043310165,-0.017835520207881927,-0.10001102089881897,0.0500105544924736,-0.06743896752595901,-0.12218086421489716,-0.13641275465488434,0.18890541791915894,0.15502628684043884,-0.06362030655145645,-0.1737811267375946,0.1297363042831421,0.12700258195400238,-0.10936495661735535,0.16061928868293762,0.19546619057655334,0.008095929399132729,0.045194853097200394,0.040283676236867905,-0.05678878724575043,-0.04209199547767639,0.12149395793676376,0.09002453833818436,-0.2206554114818573,-0.0024075291585177183,-0.08295314759016037,-0.08678166568279266,0.0633009821176529,0.12456150352954865,-0.16166092455387115,0.13202564418315887,-0.16164228320121765,0.12463212758302689,-0.05208554491400719,0.09377432614564896,-0.166212797164917,0.04605903476476669,0.021065281704068184,-0.18420405685901642,0.06613621860742569,-0.048061538487672806,0.03865451365709305,-0.050561655312776566,0.12883518636226654,-0.13046742975711823,-0.018731452524662018,0.01145584974437952,0.09190639853477478,0.27959468960762024,-0.08579772710800171,-0.0341951921582222,0.23149918019771576,0.16322267055511475,0.0031206270214170218,0.29092150926589966,-0.10140064358711243,-0.12056666612625122,0.05030706897377968,-0.09612125903367996,-0.16446557641029358,0.06102895736694336,0.07636083662509918,0.06836473941802979,0.015482021495699883,-0.18126046657562256,-0.12885403633117676,-0.17541064321994781,0.10962153971195221,0.25198256969451904,-0.09672365337610245,-0.002045000670477748,0.03732196241617203,-0.01316750980913639,0.02412637323141098,-0.07024472206830978,-0.15796507894992828,-0.14060665667057037,0.12847940623760223,-0.030139634385704994,0.1283257007598877,0.10259386152029037,0.009847093373537064,0.03754211589694023,-0.04096849635243416,0.25984784960746765,-0.040192749351263046,-0.046604279428720474,-0.09548551589250565,0.034164201468229294,-0.05109464004635811,-0.11336971074342728,-0.07791299372911453,0.028691187500953674,-0.13047832250595093,0.08121316134929657,-0.1857408881187439,-0.2754993438720703,0.10172594338655472,-0.06507702171802521,-0.0376116968691349,0.002781054936349392,0.027477968484163284,0.0638081356883049,-0.16797859966754913,-0.026751277968287468,0.048398468643426895,-0.02531770057976246,0.03614605963230133,-0.15026238560676575,-0.13869251310825348,0.09525173902511597,-0.045985348522663116,-0.189565971493721,0.184726282954216,-0.015276744961738586,-0.0018750648014247417,0.044826023280620575,0.052868910133838654,-0.009633662179112434,0.011311409994959831,-0.036246445029973984,-0.0897386372089386,0.06696360558271408,-0.04415632039308548,-0.003104304661974311,-0.0035633533261716366,0.04911608248949051,0.003265371546149254,0.035608116537332535,-0.13070029020309448,-0.061038900166749954,-0.015200352296233177,0.1321052610874176,0.04719417542219162,0.035862673074007034,-0.20696599781513214,-0.09034759551286697,0.12983715534210205,0.011405950412154198,-0.025294143706560135,0.19159045815467834,-0.1076534315943718,-0.24097269773483276,0.08782386779785156,0.09853927791118622,-0.05240676924586296,-0.031759362667798996,0.0716739296913147,0.1461189240217209,0.09573476016521454,-0.08521382510662079,-0.0373544879257679,0.034443240612745285,-0.23702587187290192,-0.025637324899435043,0.05358249321579933,-0.03250601142644882,0.14349250495433807,0.1448030322790146,0.0329769104719162,-0.07879385352134705,0.13334164023399353,-0.1894982010126114,0.0770707055926323,0.043071504682302475,-0.11338083446025848,0.05816216394305229,0.0482122078537941,-0.17344944179058075,0.015235009603202343,0.02270348370075226,-0.08226120471954346,0.0803021788597107,-0.1750575453042984,0.017188915982842445,0.022249942645430565,-0.046367693692445755,-0.1602809578180313,-0.1082649827003479,-0.007886865176260471,-0.03402981534600258,-0.15137597918510437,0.18658457696437836,0.15250134468078613,-0.031597916036844254,-0.1319507360458374,-0.034739527851343155,-0.0063331942074000835,0.02166348323225975,0.014372741803526878,0.12106739729642868,-0.027508582919836044,-0.26188740134239197,-0.07729232311248779,0.005422217771410942,0.07814721018075943,0.18651345372200012,0.0990648865699768,0.08997447788715363,0.11060802638530731,0.16225847601890564,0.0731268972158432,0.023262031376361847,-0.20170104503631592,-0.19736044108867645,-0.1926492303609848,-0.1515529751777649,-0.09734638035297394,-0.05109865590929985,-0.020970098674297333,0.10175038129091263,0.034433513879776,0.21794962882995605,0.0932464450597763,0.10020195692777634,-0.06821508705615997,-0.055443037301301956,0.06846866756677628,0.16248488426208496,0.039358142763376236,-0.021578330546617508,-0.11690475046634674,-0.10436534881591797,-0.16763028502464294,0.1609698086977005,-0.05146011337637901,-0.016240932047367096,-0.07519074529409409,-0.07675756514072418,0.13030457496643066,0.018765822052955627,-0.122983917593956,0.002746741520240903,0.0560620054602623,-0.025719493627548218,-0.04010561853647232,-0.07221570611000061,-0.14283904433250427,0.17176012694835663,-0.03772156313061714,0.01994728483259678,-0.002702500903978944,0.009656326845288277,-0.03434978425502777,0.030849138274788857,-0.08695855736732483,-0.09431059658527374,-0.0808374211192131,0.05029348284006119,0.15368641912937164,-0.02074962481856346,-0.06680983304977417,0.060848187655210495,-0.10277849435806274,0.02490415796637535,0.0838312953710556,-0.14888009428977966,0.05135155841708183,-0.07431294769048691,-0.10796347260475159,-0.08187329769134521,0.2022266834974289,0.13549098372459412,-0.1697012037038803,0.051632411777973175,0.12587270140647888,-0.08525342494249344,-0.10258947312831879,-0.07918309420347214,0.1108844205737114,-0.3280617892742157,-0.12398090958595276,-0.16221049427986145,0.15235386788845062,0.07692840695381165,-0.025757839903235435,0.04298406094312668,-3.102468490600586,0.22889365255832672,-0.051038771867752075,-0.19846080243587494,-0.05719158798456192,0.09025628864765167,0.09132789075374603,0.1057547926902771,-0.002151386346668005,-0.3076404929161072,-0.06409657746553421,0.04616381973028183,0.3729822039604187,-0.020802205428481102,-0.06216849759221077,-0.0761888176202774,0.1373368799686432,0.061950623989105225,-0.10179011523723602,0.017232930287718773,0.054458342492580414,-0.20977942645549774,0.1219962015748024,0.09696105867624283,0.11494321376085281,-0.11149768531322479,0.1979202777147293,0.20206280052661896,0.15064533054828644,-0.07854588329792023,0.015104053542017937,0.10356933623552322,-0.05582511052489281,-0.003445699345320463,-0.016789469867944717,-0.11223744601011276,0.1931702345609665,0.0781446024775505,-0.2299829125404358,-0.047076839953660965,0.07796396315097809,-0.09236763417720795,0.03969302773475647,-0.27473530173301697,-0.031233785673975945,0.03388771042227745,0.04123359173536301,0.11767231673002243,0.07282672822475433,0.008219938725233078,-0.1880980283021927,-0.03299127146601677,0.07702042162418365,0.12450671941041946,-0.1921214610338211,0.09241807460784912,-0.05016695708036423,-0.15982063114643097,0.06382984668016434,-0.33096134662628174,-0.10061898082494736,0.05242815241217613,-0.25240182876586914,0.031504541635513306,-0.08806698024272919,0.05721666291356087,-0.18553130328655243,0.1670275777578354,-0.22358137369155884,-0.22367678582668304,-0.02945925109088421,-0.01725388690829277,0.07674798369407654,-0.04668503254652023,-0.14385026693344116,0.09521321952342987,0.054083820432424545,-0.08467380702495575,-0.08085332065820694,-0.04838225245475769,-0.013824478723108768,-0.106343112885952,0.10374271124601364,-0.06256411969661713,-0.14781837165355682,-0.04810367897152901,0.015873130410909653,-0.2807590663433075,0.08702044934034348,-0.18050794303417206,0.08443583548069,0.12196163833141327,0.10906816273927689,-0.03788251429796219,0.07249771058559418,0.1419079750776291,-0.051238350570201874,-0.12275702506303787,0.07571274042129517,-0.0639965608716011,0.27508676052093506,0.039148103445768356,-0.12483225017786026,0.10097821801900864,-0.028032302856445312,0.15056255459785461,-0.04891767352819443,-0.025668110698461533,0.3532242774963379,0.12303638458251953,0.03262150660157204,-0.04276342689990997,0.09083370119333267,0.29912269115448,0.1108940988779068,-0.12974102795124054,0.04048004001379013,0.14088205993175507,-0.03964220732450485,-0.07422314584255219,0.07816676795482635,0.04607360064983368,-0.13731826841831207,-0.10346635431051254,-0.05835697799921036,0.03827523812651634,0.211362823843956,0.08045442402362823,-0.12574565410614014,0.14469189941883087,0.02073868177831173,-0.16182959079742432,0.07392721623182297,-0.02874302677810192,-0.03173749893903732,0.04153364524245262,-0.10865361243486404,-0.09424470365047455,0.047776490449905396,0.11966640502214432,0.07682007551193237,0.02769044227898121,0.10259536653757095,-0.05118260160088539,-0.25116854906082153,-0.06857390701770782,-0.17477285861968994,-0.07093823701143265,-0.1648930013179779,-0.1388072967529297,-0.07939290255308151,0.04028285667300224,-0.030897267162799835,0.045209553092718124,0.12653231620788574,-0.05978887900710106,-0.05226966366171837,0.006091833580285311,0.0859139934182167,-0.16243840754032135,0.010571721009910107,0.1124371588230133,0.08631051331758499,0.031638141721487045,0.06492286920547485,-0.11914126574993134,0.016231046989560127,0.036980293691158295,-0.2055356204509735,0.04376726970076561,0.05346523970365524,0.017820976674556732,-0.10242562741041183,0.09971606731414795,0.24824278056621552,0.08670946955680847,0.0071031320840120316,-0.08634326606988907,-0.026592548936605453,0.0372343435883522,-0.07850681990385056,-0.05534350126981735,-0.05933237820863724,-0.20632149279117584,0.16016535460948944,0.15651202201843262,0.2959776818752289,0.2407083660364151,0.11170078068971634,0.14572010934352875,-0.1017845869064331,0.2473832070827484,-0.11837489157915115,-0.04465359076857567,0.0047342474572360516,-0.06909177452325821,0.10483823716640472,-0.00020172800577711314,-0.02810719609260559,0.02644386701285839,-0.13343697786331177,0.34527093172073364,-0.22759023308753967,-0.008227729238569736,-0.015331808477640152,0.04927588999271393,-0.005317695438861847,0.07597162574529648,-0.12358587980270386,-0.057697296142578125,-0.007166319061070681,-0.04920046404004097,-0.04642174765467644,-0.058736685663461685,0.11079449206590652,0.06372173130512238,0.02423035353422165,0.046008188277482986,-0.14912591874599457,-0.21164317429065704,-0.07691837102174759,-0.03615329787135124,-0.11023634672164917,0.04868091642856598,0.17087899148464203,-0.06488893181085587,0.12497498840093613,0.026320621371269226,0.07312403619289398,-0.08790235221385956,0.0007840341422706842,-0.06916680186986923,-0.07913066446781158,0.02887401171028614,-0.15848955512046814,-0.20209366083145142,-0.10896927118301392,0.09847856312990189,0.06107723340392113,-0.12403469532728195,-0.06892962008714676,-0.28067901730537415,-0.028313269838690758,0.133668914437294,0.024680200964212418,0.17003308236598969,-0.05377959460020065,-0.07735762000083923,-0.3012624680995941,0.035990264266729355,-0.020168956369161606,-0.059837374836206436,0.08560222387313843,-0.049947045743465424,0.1378159373998642,0.1157860979437828,0.17270034551620483,-0.04160695523023605,0.13931895792484283,-0.12402235716581345,-0.10383095592260361,0.08034241199493408,-0.04081335291266441,0.10462790727615356,0.040680915117263794,-0.04022252932190895,0.10890989005565643,0.06972452253103256,-0.02340695448219776,-0.10457264631986618,-0.030667532235383987,-0.029243437573313713,0.08696670085191727,0.08492433279752731,6.375937461853027,-0.019683215767145157,0.09707381576299667,-0.24757520854473114,0.13210487365722656,-0.15285393595695496,0.009662249125540257,0.11240427941083908,0.07704588025808334,0.12474361062049866,0.011380212381482124,0.00508198793977499,-0.016487110406160355,-0.02191661298274994,-0.05794179067015648,-0.03645780310034752,0.024278441444039345,-0.041231658309698105,-0.0035485150292515755,-0.10441935062408447,-0.0060534304939210415,0.11817184090614319,-0.02707301452755928,-0.025689205154776573,-0.11796427518129349,0.01406810898333788,0.13831087946891785,-0.01882976107299328,-0.07648118585348129,-0.18443481624126434,-0.058481521904468536,0.02603951469063759,0.06738914549350739,0.03858228772878647,-0.0375540629029274,0.06499796360731125,0.227124884724617,0.15438216924667358,0.1140468493103981,-0.04222351312637329,0.031618211418390274,0.02904721349477768,-0.05475454404950142,-0.0130231361836195,0.007638448383659124,-0.12548725306987762,-0.07316258549690247,0.11095192283391953,-0.039640843868255615,-0.004191061481833458,0.10117475688457489,-0.1333434283733368,0.15961983799934387,0.004256603308022022,0.16403160989284515,0.0785188376903534,0.017307566478848457,-0.19979676604270935,0.29160112142562866,0.12313459068536758,-0.04836336895823479,-0.07254787534475327,0.09676803648471832,0.10505740344524384,0.03345822915434837,0.09688861668109894,0.08554629981517792,-0.16157729923725128,0.06480824947357178,0.048830486834049225,0.22451134026050568,-0.1153186783194542,0.0004289912467356771,0.15242773294448853,0.10674513131380081,0.04985543340444565,0.15259858965873718,-0.09862394630908966,-0.028764337301254272,-0.4213365614414215,-0.2142869532108307,-0.08904335647821426,0.218763068318367,0.07153777778148651,0.030078954994678497,0.07185079902410507,0.09531354159116745
NT-CT,-0.055001553148031235,-0.22461995482444763,-0.10092803835868835,-0.057228993624448776,0.051731716841459274,0.04809127002954483,-0.0045455205254256725,-0.044395603239536285,-0.08419575542211533,0.17142115533351898,0.17092150449752808,-0.10527559369802475,-0.16805283725261688,-0.01502133160829544,0.025037981569767,-0.09402230381965637,0.10701029002666473,0.11701987683773041,-0.07258033752441406,0.04954693838953972,0.04537641629576683,-0.1347649246454239,-0.06755836308002472,0.08281820267438889,0.16555730998516083,-0.20922932028770447,0.05269679054617882,-0.027682464569807053,-0.11230896413326263,0.04825476557016373,0.17393967509269714,-0.2141829878091812,0.09254653751850128,-0.1363082081079483,0.10406967252492905,0.05757109820842743,-0.008791498839855194,-0.00653969356790185,-0.02453182451426983,0.020599879324436188,-0.09849891811609268,0.010134930722415447,0.047261711210012436,-0.0068017845042049885,0.051251120865345,0.07850348204374313,-0.04396234080195427,-0.1017274558544159,-0.09557987749576569,0.15166902542114258,0.2521215081214905,-0.12193472683429718,-0.03558620437979698,0.16580596566200256,0.18513987958431244,-0.03967784717679024,0.20102962851524353,-0.14835765957832336,0.016462042927742004,0.04690508171916008,0.044885940849781036,-0.1590825766324997,0.007023562211543322,0.09118148684501648,0.1393919736146927,0.15281136333942413,-0.0626494511961937,-0.07194597274065018,-0.2145431786775589,0.06641577929258347,0.15251336991786957,-0.14722582697868347,-0.06010111793875694,0.07129981368780136,0.0028813211247324944,0.024748248979449272,-0.06787829101085663,-0.06754826009273529,-0.08625523000955582,0.20623023808002472,-0.004868081770837307,0.21784046292304993,0.028227413073182106,0.034711387008428574,0.05888424441218376,-0.029471082612872124,0.09118913114070892,0.05212211236357689,0.0030687316320836544,-0.17255911231040955,0.1238151490688324,-0.04350656643509865,-0.07006485015153885,0.03311021998524666,0.0035250873770564795,-0.060203734785318375,0.08560287952423096,-0.05479156970977783,-0.20399099588394165,0.11863641440868378,-0.00549104530364275,-0.016078561544418335,-0.03430664539337158,0.10271425545215607,0.04135669395327568,-0.10780012607574463,-0.0722527876496315,-0.06738131493330002,-0.011731659062206745,-0.02938666008412838,-0.13025325536727905,-0.053250353783369064,0.024082979187369347,-0.08231787383556366,0.005239393096417189,0.15264511108398438,0.05287264287471771,-0.06291063129901886,0.015568492002785206,0.07954897731542587,-0.04129904881119728,-0.010984743013978004,0.024507001042366028,0.013661670498549938,-0.004028831142932177,-0.06326418370008469,-0.05980273336172104,0.023324673995375633,0.006123743485659361,0.030282046645879745,0.14354373514652252,-0.09081578254699707,-0.10635796934366226,-0.005297535564750433,0.18050767481327057,0.09361515194177628,0.005612453445792198,-0.07582748681306839,-0.08667182177305222,0.031179098412394524,-0.02515392377972603,0.08549869805574417,0.10875479131937027,-0.08372978866100311,-0.23385100066661835,0.08613473176956177,0.05507054179906845,-0.10119015723466873,-0.006366872228682041,0.08139128237962723,0.12642048299312592,0.05538231506943703,-0.10622818022966385,-0.08495992422103882,-0.02787163108587265,-0.1791783571243286,-0.03597953915596008,0.0887092873454094,-0.10511981695890427,0.03064531646668911,0.061211246997117996,-0.09934546798467636,-0.09605179727077484,0.09609784185886383,-0.07593568414449692,0.1561840921640396,0.13878588378429413,-0.15321512520313263,0.07656525820493698,0.04194512218236923,-0.07026522606611252,-0.05101887136697769,0.030470557510852814,-0.15421167016029358,0.058421697467565536,-0.11014766246080399,-0.008142881095409393,-0.06150289997458458,0.018901048228144646,-0.07861874997615814,-0.26467055082321167,-0.07989486306905746,0.06574999541044235,-0.05490719527006149,0.15928184986114502,0.05809853598475456,-0.027812402695417404,-0.01643773540854454,-0.04641349986195564,0.020178312435746193,-0.132853165268898,-0.15630784630775452,0.0413777157664299,-0.005510405637323856,-0.10636989027261734,0.03991231694817543,0.05628381296992302,0.08529172092676163,0.0688023567199707,0.059927038848400116,0.06824441254138947,0.08471956849098206,0.05262516438961029,0.10268944501876831,-0.036720726639032364,-0.24863311648368835,-0.0940946638584137,-0.176438108086586,-0.07067324221134186,-0.07486634701490402,-0.11324369162321091,-0.08654090017080307,0.09697150439023972,0.057376354932785034,0.21635763347148895,0.045832231640815735,0.13791099190711975,-0.0449991300702095,-0.018930485472083092,0.057364121079444885,0.11258166283369064,0.12153865396976471,0.014499988406896591,-0.05008821561932564,0.021603669971227646,-0.016513893380761147,0.17915520071983337,-0.06331194192171097,-0.08685292303562164,-0.1361311376094818,-0.053284455090761185,0.09653235226869583,0.12296181917190552,-0.12198663502931595,-0.06886745989322662,-0.027095893397927284,0.030374199151992798,-0.10235179215669632,-0.02049468643963337,-0.15932755172252655,0.0710320994257927,0.009857832454144955,0.06218511238694191,-0.03700141981244087,-0.06503374874591827,0.029423169791698456,0.06432720273733139,-0.03776658698916435,-0.07444404065608978,-0.0578383132815361,0.16450126469135284,0.07215270400047302,0.03209148347377777,-0.13389615714550018,0.018286917358636856,-0.07201295346021652,0.012198032811284065,0.10369839519262314,0.006470163352787495,0.054931141436100006,-0.08788373321294785,-0.06381615251302719,0.003958386834710836,-0.05206805095076561,0.1209321916103363,-0.06314192712306976,-0.018252244219183922,0.08849764615297318,-0.045074619352817535,-0.06025722995400429,-0.011055846698582172,0.0601966455578804,-0.15924248099327087,-0.0026843983214348555,-0.07646498084068298,0.17440864443778992,-0.01713416911661625,-0.09605295956134796,-0.0341617651283741,-2.703993558883667,0.1762092262506485,-0.005380704998970032,-0.19360636174678802,-0.03851867467164993,0.13302341103553772,0.010287667624652386,0.02809908054769039,0.05441294610500336,-0.19319413602352142,-0.0016696822131052613,0.011153061874210835,0.5309211611747742,-0.06509353965520859,-0.006003959570080042,0.016168907284736633,0.01490295771509409,0.03231225907802582,-0.10207823663949966,-0.001501024467870593,-0.0951586589217186,-0.06564388424158096,0.121248260140419,0.08486399799585342,0.04129800572991371,-0.01392025500535965,0.17523682117462158,0.09407101571559906,0.0013233450008556247,-0.059284575283527374,-0.08229145407676697,-0.009803605265915394,-0.1464145928621292,-0.001602799748070538,0.05654829740524292,-0.01069613453000784,0.03495056927204132,0.21280242502689362,-0.0932195633649826,-0.09166622161865234,0.0840592011809349,-0.07827260345220566,0.07342445105314255,-0.19037577509880066,-0.027468152344226837,0.027036044746637344,0.20371557772159576,0.12320318818092346,0.030426811426877975,-0.12587504088878632,-0.1395285427570343,-0.09684131294488907,0.014288490638136864,0.1040576621890068,-0.16522450745105743,0.07608175277709961,-0.04610002785921097,-0.1684284210205078,-0.034523822367191315,-0.24387826025485992,-0.01585097424685955,0.016647279262542725,-0.28459540009498596,-0.0626092329621315,-0.04415672644972801,-0.05564450845122337,-0.10957777500152588,-0.02058553881943226,-0.14949756860733032,-0.12462407350540161,-0.025990620255470276,-0.09960534423589706,0.007192410994321108,-0.023710470646619797,-0.19392968714237213,0.0656270831823349,0.02809992991387844,-0.02825070545077324,-0.05844055116176605,0.09834789484739304,0.02049178257584572,-0.10418801009654999,0.11708614975214005,0.026031365618109703,-0.09916473180055618,-0.02665676549077034,-0.011887784115970135,-0.2787807583808899,0.08478792756795883,-0.06939999014139175,0.024740301072597504,0.03111393004655838,0.01902424730360508,0.00660731503739953,-0.038105953484773636,0.1319521963596344,-0.05952582135796547,-0.10314226150512695,0.09017878770828247,0.0034593623131513596,0.17202186584472656,-0.0026353057473897934,-0.014046632684767246,0.12165794521570206,-0.048337411135435104,0.07957523316144943,-0.15538160502910614,0.11328107863664627,0.18258929252624512,0.20194005966186523,0.11992163211107254,0.006895869970321655,-0.012776818126440048,0.15196315944194794,-0.01813204027712345,-0.07311351597309113,-0.012727722525596619,0.22925245761871338,-0.03357692062854767,-0.06230517476797104,-0.032336559146642685,-0.07394883781671524,-0.14668866991996765,-0.1427619904279709,-0.03161975368857384,0.028951844200491905,0.1292848438024521,0.08834732323884964,-0.15753965079784393,0.09126440435647964,0.037337031215429306,-0.06270084530115128,0.06445544958114624,0.06723117083311081,-0.00727451778948307,0.06914377957582474,-0.053777437657117844,-0.20441657304763794,0.037810713052749634,0.059194374829530716,0.14575839042663574,0.06318862736225128,0.09351245313882828,-0.08381898701190948,-0.15310679376125336,0.05205555260181427,-0.1961498260498047,0.010738862678408623,-0.19953662157058716,-0.17250686883926392,-0.017567282542586327,0.0018718444043770432,-0.00646147970110178,-0.03842514753341675,0.06752871721982956,-0.05478909984230995,-0.06850208342075348,0.1339140385389328,0.08015124499797821,-0.07339990139007568,0.04197549819946289,0.057538893073797226,0.11539893597364426,0.07236173748970032,0.052579622715711594,0.05458645150065422,0.011577156372368336,-0.07907328754663467,-0.15057668089866638,0.0806863084435463,-0.038050852715969086,-0.041842661798000336,-0.05051485449075699,0.03663741797208786,0.15504370629787445,0.11540357768535614,-0.07463236898183823,-0.09896983206272125,-0.10486388951539993,0.05906392261385918,-0.11026143282651901,0.0722099095582962,-0.07703042030334473,-0.2245401293039322,0.13215991854667664,0.08743158727884293,0.19887402653694153,0.21378165483474731,0.08610757440328598,0.05867885425686836,0.048601001501083374,0.14705872535705566,-0.1703842729330063,0.01970970816910267,0.0756193995475769,-0.007308722473680973,0.15391892194747925,0.003935039043426514,0.055782824754714966,0.053789395838975906,-0.23283377289772034,0.2939958870410919,-0.15671300888061523,-0.07295546680688858,-0.029631678014993668,0.03440237045288086,0.02050703950226307,-0.024162959307432175,-0.1031424030661583,-0.004397283308207989,0.05723359435796738,-0.0696658119559288,0.02550259605050087,0.040539324283599854,0.27984508872032166,0.006339907646179199,0.06006516143679619,-0.015201381407678127,-0.18657425045967102,-0.11108870804309845,-0.0703895166516304,-0.05277213826775551,-0.12430926412343979,0.10367453098297119,0.061513952910900116,0.014562418684363365,0.13151662051677704,-0.05606558173894882,0.15887565910816193,-0.10688340663909912,0.07088172435760498,-0.002322474727407098,-0.11686519533395767,0.09164179861545563,-0.20943577587604523,-0.19420009851455688,0.0055649843998253345,0.062015801668167114,-0.051788873970508575,-0.11160175502300262,-0.031567249447107315,-0.18711549043655396,-0.0289172250777483,0.12360988557338715,-0.027146145701408386,0.16897687315940857,-0.005669084377586842,0.016260311007499695,-0.201581671833992,0.07829791307449341,-0.025090565904974937,0.09846152365207672,0.17149415612220764,-0.16484536230564117,0.059228360652923584,0.0633479654788971,0.14447252452373505,0.01099283155053854,0.14902465045452118,-0.0607808455824852,0.03638625144958496,0.038738250732421875,0.01966915838420391,0.059940602630376816,-0.0969218760728836,-0.039460692554712296,0.05862656608223915,-0.00615096278488636,0.05682225152850151,-0.06924402713775635,0.05411587283015251,-0.04976844787597656,0.15178602933883667,0.06870578229427338,6.5628156661987305,0.002077557845041156,0.025689123198390007,-0.2532983720302582,0.12904922664165497,-0.10744340717792511,-0.061654023826122284,0.1428915560245514,0.09923885017633438,0.06002047285437584,0.08331678807735443,-0.009493091143667698,0.05888395383954048,0.004461835138499737,0.02999727800488472,0.03360584005713463,0.007631821092218161,0.008505215868353844,0.03389175608754158,-0.08306028693914413,0.06242198869585991,-0.007412683684378862,-0.009286615997552872,0.010622138157486916,-0.024076633155345917,-0.05769365653395653,-0.04105009138584137,-0.0593980997800827,-0.14695429801940918,-0.20277683436870575,-0.004230291582643986,-0.05385950580239296,0.020366515964269638,0.0790204331278801,-0.024623019620776176,0.08062408864498138,0.12100764364004135,0.09824207425117493,0.028885837644338608,-0.009165873751044273,0.0022829915396869183,-0.004618332255631685,-0.08653058856725693,-0.08120522648096085,-0.1424965113401413,-0.07786034047603607,-0.050628434866666794,0.03916817530989647,-0.04115075618028641,-0.010493451729416847,0.049841027706861496,-0.10639186948537827,0.07039546966552734,-0.10839498788118362,0.11824336647987366,0.04060756415128708,0.011888534761965275,-0.14253288507461548,0.3111378252506256,0.08704791963100433,-0.037063028663396835,-0.05190711095929146,0.0065760426223278046,0.09289156645536423,0.032887011766433716,0.0841575339436531,0.14649520814418793,-0.13512066006660461,0.033727459609508514,0.023080676794052124,0.06516307592391968,-0.05895183980464935,-0.049969594925642014,0.051235053688287735,0.05283619090914726,0.03934665396809578,0.019467754289507866,-0.14743931591510773,-0.06251681596040726,-0.6106991767883301,-0.1445758044719696,-0.051514048129320145,0.18027369678020477,-0.08493516594171524,-0.00970535259693861,-0.036054253578186035,0.05204915627837181
NT2RepCT,-0.004672883078455925,-0.2524072825908661,-0.12013367563486099,-0.04250341281294823,0.06113877892494202,0.04864377900958061,0.01887543871998787,-0.04641782492399216,-0.12694019079208374,0.2528797388076782,0.17323534190654755,-0.08847922831773758,-0.13400010764598846,0.035412680357694626,0.06901578605175018,-0.12460711598396301,0.1513868272304535,0.12330657243728638,-0.048534564673900604,0.02731573022902012,0.016586631536483765,-0.18976624310016632,-0.022755438461899757,0.09021874517202377,0.17246784269809723,-0.21315154433250427,0.06692013144493103,-0.049093443900346756,-0.0846843272447586,0.039423517882823944,0.16896258294582367,-0.15514828264713287,0.0526127815246582,-0.19222518801689148,0.09788462519645691,0.03365880623459816,0.01870621182024479,-0.07861896604299545,0.02039644680917263,-0.015075691975653172,-0.11221681535243988,-0.047479525208473206,0.03765186294913292,-0.006478435359895229,-0.042030926793813705,0.08985871821641922,-0.05807844549417496,-0.186928391456604,-0.07718270272016525,0.13061608374118805,0.319680392742157,-0.09191432595252991,-0.016236895695328712,0.22990024089813232,0.2219913899898529,-0.057496458292007446,0.23803244531154633,-0.0805649533867836,-0.03702551871538162,0.008349025622010231,0.029142627492547035,-0.14586062729358673,-0.002608576091006398,0.10701104253530502,0.13479089736938477,0.15665769577026367,-0.09064998477697372,-0.0767805203795433,-0.20351512730121613,0.06350557506084442,0.19030696153640747,-0.12556391954421997,-0.10357672721147537,0.0822276920080185,0.046264611184597015,-0.0003070704115089029,-0.09507441520690918,-0.09678157418966293,-0.09422574937343597,0.1560666561126709,-0.013402915559709072,0.2314823418855667,0.03953057900071144,0.02979118563234806,0.07477928698062897,-0.022886203601956367,0.12213289737701416,-0.04184779152274132,-0.03983026370406151,-0.16428282856941223,0.1118713766336441,-0.045889146625995636,-0.04723309725522995,-0.06227624788880348,0.08456610888242722,-0.12091420590877533,0.12721644341945648,-0.09031092375516891,-0.22133949398994446,0.16391927003860474,-0.041028592735528946,0.031185757368803024,0.05039934068918228,0.044806916266679764,0.0256348866969347,-0.09620014578104019,-0.07362894713878632,-0.0013693756191059947,0.009465889073908329,-0.0960472822189331,-0.09992789477109909,-0.14519886672496796,0.05602117255330086,-0.025722302496433258,-0.00703064352273941,0.13562294840812683,0.004526549018919468,-0.009489649906754494,0.029269687831401825,0.03051324188709259,-0.0467817559838295,0.025101859122514725,0.006352860014885664,-0.049034930765628815,0.016592955216765404,0.027690384536981583,-0.03501139208674431,0.018601950258016586,0.06299619376659393,-0.03587750717997551,0.09994570910930634,-0.10559526085853577,-0.11005101352930069,0.0012167156673967838,0.25526368618011475,0.07064468413591385,-0.0542619563639164,-0.10388853400945663,-0.07741978019475937,0.03493126481771469,0.040470074862241745,0.08966079354286194,0.12686114013195038,-0.09266728907823563,-0.02093040756881237,0.022046027705073357,0.1220240667462349,-0.08002813905477524,0.045694004744291306,0.07241795212030411,0.13951799273490906,0.048283226788043976,-0.1189040020108223,-0.1050628125667572,-0.011818824335932732,-0.14462727308273315,8.16482279333286e-05,0.07841501384973526,-0.018794840201735497,0.06885521113872528,0.07078959792852402,-0.022170979529619217,-0.017076311632990837,0.0994952991604805,-0.1410302370786667,0.1328342705965042,0.14267857372760773,-0.09931296855211258,0.08757089078426361,0.03718120604753494,-0.026093993335962296,-0.054557450115680695,-0.02232830971479416,-0.06615055352449417,0.06291355192661285,-0.1422717124223709,0.023494230583310127,-0.030121564865112305,0.06106151267886162,-0.12289484590291977,-0.1534562110900879,-0.027712076902389526,-0.006068468559533358,-0.10452469438314438,0.13554531335830688,0.0701664388179779,-0.05878760293126106,0.05034956336021423,-0.0344635434448719,0.04430394247174263,-0.03722839057445526,-0.13147829473018646,0.055258892476558685,0.01639672927558422,-0.09684517234563828,-0.0030317087657749653,-0.0182019155472517,0.13771671056747437,0.07144606858491898,0.07577218115329742,0.0780973806977272,0.05356186628341675,0.04350150749087334,0.10872938483953476,-0.06941545009613037,-0.2860278785228729,-0.16672521829605103,-0.21123911440372467,-0.1302444040775299,-0.07880033552646637,-0.07436315715312958,-0.07674595713615417,0.1129601001739502,0.013721826486289501,0.2556253671646118,0.09144201874732971,0.1325821727514267,-0.06852150708436966,-0.01508619636297226,0.07428070902824402,0.15975652635097504,0.09422993659973145,-0.07241920381784439,-0.07062190026044846,-0.06679825484752655,-0.06346362084150314,0.174728125333786,-0.04259588196873665,-0.1175689771771431,-0.13191796839237213,-0.07646525651216507,0.150448739528656,0.12303332984447479,-0.13990044593811035,-0.0889005959033966,-0.029841618612408638,0.02297159656882286,-0.09196573495864868,-0.08543848991394043,-0.20002608001232147,0.07978152483701706,0.029259860515594482,0.026640815660357475,-0.007123913615942001,-0.07952660322189331,0.013478545472025871,0.05281263589859009,-0.038034435361623764,-0.09329260140657425,-0.016224952414631844,0.17622871696949005,0.10674001276493073,0.016170503571629524,-0.15598315000534058,0.01781173050403595,-0.04754088073968887,0.028285374864935875,0.10391931235790253,-0.06014927104115486,0.09677319973707199,-0.07493042200803757,-0.13369998335838318,0.004337835591286421,-0.010830208659172058,0.14346005022525787,-0.13958775997161865,-0.013867647387087345,0.09621056914329529,-0.07726738601922989,-0.1509125530719757,-0.04009219631552696,0.015786094591021538,-0.19477826356887817,-0.016718614846467972,-0.09516484290361404,0.13542437553405762,-0.011077900417149067,-0.06248724088072777,-0.051404375582933426,-2.9121596813201904,0.2291666716337204,-0.030266981571912766,-0.19734881818294525,0.004310959484428167,0.13187503814697266,-0.0066167935729026794,0.059963200241327286,0.05070020630955696,-0.28589630126953125,0.04037223383784294,0.06825964897871017,0.18648307025432587,-0.07290281355381012,-0.01008116640150547,-0.04523231461644173,0.021960148587822914,0.08052229881286621,-0.08685696125030518,-0.047956086695194244,-0.06204001605510712,-0.12227470427751541,0.13502466678619385,0.12409825623035431,0.05698269605636597,0.02580319531261921,0.22876833379268646,0.12492157518863678,0.07626409083604813,-0.03817642107605934,-0.08494139462709427,-0.003481286345049739,-0.12068747729063034,0.013361315242946148,0.08082016557455063,-0.035045649856328964,0.057699885219335556,0.2030695527791977,-0.1055060625076294,-0.04082562029361725,0.06604290753602982,-0.03184586390852928,0.05220489576458931,-0.21600490808486938,-0.09632741659879684,0.012356700375676155,0.10767272114753723,0.19627690315246582,0.07296035438776016,-0.10348036885261536,-0.14698198437690735,-0.08262894302606583,0.03503606095910072,0.08509427309036255,-0.12934361398220062,0.02891390398144722,-0.027008766308426857,-0.23560146987438202,0.016098134219646454,-0.2406512051820755,-0.045145656913518906,0.037843137979507446,-0.30583974719047546,-0.016428818926215172,-0.007663880940526724,0.001541588455438614,-0.1316639631986618,0.04757038503885269,-0.14358197152614594,-0.1787298619747162,0.01385300699621439,-0.05445468798279762,0.03545410558581352,-0.030888540670275688,-0.2118014097213745,0.04351288452744484,0.027121184393763542,0.013249710202217102,-0.024507299065589905,0.08219119906425476,-0.0021081618033349514,-0.08370848745107651,0.09316246956586838,-0.031855084002017975,-0.08713730424642563,-0.02222951501607895,-0.00470829987898469,-0.24689114093780518,0.19663932919502258,-0.08745117485523224,0.03717265650629997,0.05507093667984009,-0.007591132074594498,-0.038217391818761826,-0.07560588419437408,0.1228337362408638,-0.0901956781744957,-0.1793757826089859,0.006391495931893587,-0.0386791005730629,0.16554895043373108,0.049222126603126526,-0.059361789375543594,0.22043877840042114,-0.05248136818408966,0.10209602862596512,-0.14504560828208923,0.08176601678133011,0.2147846221923828,0.12236183136701584,0.1290421336889267,-0.007133064791560173,0.023424571380019188,0.1074705645442009,0.031049678102135658,-0.020499873906373978,0.038978561758995056,0.1843990683555603,-0.05148088559508324,-0.04719280079007149,-0.05436355248093605,-0.03643959388136864,-0.12188108265399933,-0.11840752512216568,-0.01975574903190136,0.013185764662921429,0.15798595547676086,0.08572322875261307,-0.18600782752037048,0.11156294494867325,-0.006565293297171593,-0.040571779012680054,0.0672244280576706,0.01725406013429165,-0.03120468556880951,-0.0661352202296257,-0.07288610935211182,-0.14748094975948334,0.03786050155758858,0.053768888115882874,0.07142655551433563,0.000854490150231868,0.15896496176719666,-0.0518471822142601,-0.1563086360692978,0.021751781925559044,-0.14174792170524597,0.003819925244897604,-0.1727062165737152,-0.1211983934044838,-0.00048408727161586285,0.024578694254159927,0.009764866903424263,-0.031172404065728188,0.09185884892940521,-0.05827629566192627,-0.14197492599487305,0.0702371820807457,0.09855228662490845,-0.08160678297281265,0.021453283727169037,0.1374637633562088,0.0894036516547203,0.030489927157759666,0.05473031476140022,0.021789763122797012,0.02122284099459648,-0.003719000145792961,-0.1067439392209053,0.04178665578365326,-0.027946805581450462,-0.073026143014431,-0.04139966517686844,0.06986449658870697,0.15070001780986786,0.13593575358390808,-0.043121688067913055,-0.07083816081285477,-0.07032041996717453,0.10342442244291306,-0.19219975173473358,0.023520702496170998,-0.10624125599861145,-0.23842811584472656,0.18273793160915375,0.0944066196680069,0.21992293000221252,0.23788632452487946,0.0673847496509552,0.06255881488323212,0.11318597197532654,0.19648729264736176,-0.1178799644112587,-0.021080225706100464,0.04973719269037247,0.004248626064509153,0.1444098949432373,-0.012967942282557487,0.016136199235916138,0.0059677124954760075,-0.23387299478054047,0.29642751812934875,-0.22220295667648315,-0.02255309373140335,-0.07335913181304932,0.034681059420108795,-0.016104072332382202,0.013159121386706829,-0.12223057448863983,-0.05469047278165817,0.03382844850420952,-0.11537093669176102,-0.004935385659337044,0.03263366222381592,0.2408890575170517,0.005009443033486605,0.03165799751877785,-0.010316378436982632,-0.12662340700626373,-0.1071506217122078,-0.06800100207328796,-0.0003396908286958933,-0.1548359990119934,0.03334018960595131,0.09398270398378372,0.007686919998377562,0.17286454141139984,0.0029002700466662645,0.13911154866218567,-0.036756813526153564,0.0672198161482811,-0.029924051836133003,-0.07037461549043655,0.11763472855091095,-0.2027064859867096,-0.1915840357542038,-0.05040676146745682,0.0025041631888598204,-0.07755055278539658,-0.1418336182832718,0.01602316088974476,-0.2215932309627533,-0.0002016519574681297,0.14503544569015503,-0.01913171447813511,0.13897964358329773,-0.027287332341074944,-0.032191354781389236,-0.22005926072597504,0.08400817215442657,0.008999691344797611,0.059649959206581116,0.17250864207744598,-0.12252402305603027,0.1189437136054039,0.10245906561613083,0.1086524948477745,-0.006570633966475725,0.1722082793712616,-0.09026510268449783,0.04186130315065384,0.08176712691783905,-0.0018587359227240086,0.1169382706284523,-0.04603978618979454,0.0003459006838966161,0.02279125526547432,0.01779473014175892,-0.003987770527601242,-0.07499980926513672,0.08216569572687149,-0.039720457047224045,0.16199128329753876,0.04478836432099342,6.140328884124756,-0.1273893266916275,0.1588234305381775,-0.22437873482704163,0.1123681291937828,-0.09819021075963974,0.06257827579975128,0.1013055220246315,0.09321755915880203,0.06610047817230225,0.05467969551682472,-0.02234148606657982,0.06515973806381226,-0.003746225731447339,-0.023003948852419853,0.006237434688955545,0.04369469732046127,-0.02146419882774353,0.001356752822175622,-0.061448659747838974,-0.012089703232049942,0.021486595273017883,0.047313276678323746,0.02236810140311718,-0.1110566183924675,-0.000193411746295169,0.013478850945830345,-0.06810971349477768,-0.145785391330719,-0.22200262546539307,-0.018346542492508888,-0.006143036764115095,-0.004737165756523609,0.027242006734013557,-0.07597686350345612,0.01674439013004303,0.15402837097644806,0.08762530982494354,0.0036886953748762608,0.07991839200258255,0.06105559319257736,-0.0003281266544945538,-0.0635903924703598,-0.11275468021631241,-0.11995714902877808,-0.03983410820364952,-0.05335622653365135,0.08771231025457382,-0.020015373826026917,0.02577940747141838,0.0783446729183197,-0.1321638822555542,0.1532205045223236,-0.08824391663074493,0.11944010853767395,0.08769194036722183,0.021815339103341103,-0.26114800572395325,0.2630182206630707,0.11110437661409378,-0.06681854277849197,-0.06894256174564362,-0.014177842065691948,0.0788140818476677,-0.03357573598623276,0.08634253591299057,0.16712717711925507,-0.2016931176185608,0.048905543982982635,0.054449036717414856,0.09595455229282379,-0.025425883010029793,0.06608343124389648,0.09328403323888779,0.05729951336979866,-0.01222104113548994,0.021427560597658157,-0.19986173510551453,-0.09833034873008728,-0.3712294101715088,-0.1440831869840622,-0.0525449700653553,0.23049592971801758,-0.07478470355272293,-0.06761535257101059,0.027889685705304146,0.06807734817266464
A3IA,-0.010325041599571705,-0.24671980738639832,-0.10791477560997009,-0.06068709120154381,0.061629582196474075,0.024591416120529175,0.008916809223592281,-0.06694129854440689,-0.13296879827976227,0.2384585291147232,0.190149188041687,-0.08814234286546707,-0.13041090965270996,0.04442020505666733,0.06786108016967773,-0.13069330155849457,0.15125539898872375,0.12025296688079834,-0.04626786336302757,0.018682247027754784,0.0199685450643301,-0.20425333082675934,-0.03267858177423477,0.08945547789335251,0.17677266895771027,-0.20006440579891205,0.05322442576289177,-0.05769975855946541,-0.07527738809585571,0.04948359727859497,0.15505100786685944,-0.14920200407505035,0.06648518145084381,-0.18843157589435577,0.10481114685535431,0.04581867903470993,0.01769404299557209,-0.07319667935371399,0.025195050984621048,-0.006110452581197023,-0.11780532449483871,-0.047004491090774536,0.030782422050833702,0.0013262236025184393,-0.0279727540910244,0.07373767346143723,-0.05198625847697258,-0.1937979906797409,-0.08554534614086151,0.1195141151547432,0.3124331831932068,-0.09044300764799118,-0.021869324147701263,0.21347041428089142,0.2203466147184372,-0.05572075396776199,0.23859871923923492,-0.0908597931265831,-0.04015442356467247,0.004018735606223345,0.03104446269571781,-0.14643971621990204,-0.0013994730543345213,0.10728098452091217,0.15907126665115356,0.15161001682281494,-0.09037880599498749,-0.07757584005594254,-0.21626313030719757,0.061051953583955765,0.19392506778240204,-0.12839122116565704,-0.10405120253562927,0.0817485973238945,0.03878899663686752,0.01414288580417633,-0.1008419618010521,-0.08420051634311676,-0.0868452861905098,0.17439626157283783,-0.016529954969882965,0.23121757805347443,0.03127250820398331,0.014977621845901012,0.07682553678750992,-0.030600160360336304,0.1385210007429123,-0.039924923330545425,-0.04139729216694832,-0.16637711226940155,0.11099301278591156,-0.04026484489440918,-0.04518726095557213,-0.06511737406253815,0.07794760912656784,-0.10989946126937866,0.12965087592601776,-0.07610572129487991,-0.23508743941783905,0.16230805218219757,-0.025187019258737564,0.026531092822551727,0.05718909576535225,0.04698376730084419,0.028019681572914124,-0.09810975193977356,-0.07219871133565903,0.010388819500803947,0.01928456872701645,-0.08669621497392654,-0.08974330872297287,-0.15019157528877258,0.047066591680049896,-0.03845443204045296,-0.012391680851578712,0.12441261112689972,0.010373793542385101,-0.012035353109240532,0.019625062122941017,0.021220020949840546,-0.06643087416887283,0.01675441674888134,0.014124426059424877,-0.03184477984905243,0.02738501876592636,0.028345352038741112,-0.03927026316523552,0.03781621530652046,0.07818734645843506,-0.021628161892294884,0.10009936988353729,-0.10910554975271225,-0.10892350226640701,0.0068062483333051205,0.24417637288570404,0.08548320829868317,-0.04147923365235329,-0.0863548293709755,-0.09234506636857986,0.03324315696954727,0.03193271905183792,0.10164681822061539,0.11204814910888672,-0.09000803530216217,-0.06899124383926392,0.036254674196243286,0.11565127968788147,-0.07475847005844116,0.04849311336874962,0.07445072382688522,0.13343971967697144,0.05615133419632912,-0.11369180679321289,-0.10071256011724472,-0.0024341826792806387,-0.14925616979599,-0.0043382528237998486,0.07761474698781967,-0.02119964361190796,0.07225657254457474,0.0671660453081131,-0.02271505445241928,-0.028008459135890007,0.09351304173469543,-0.13883790373802185,0.12765660881996155,0.13997705280780792,-0.10025369375944138,0.07561594992876053,0.04956566542387009,-0.04366778954863548,-0.05400148779153824,-0.013472403399646282,-0.0805916041135788,0.07446733862161636,-0.15643203258514404,0.021581029519438744,-0.03412685543298721,0.05312089994549751,-0.1291016936302185,-0.1687348484992981,-0.041660815477371216,-0.007958859205245972,-0.09585659205913544,0.15322476625442505,0.06599074602127075,-0.047724589705467224,0.03608711063861847,-0.041485656052827835,0.0321386344730854,-0.02961200475692749,-0.11648876219987869,0.057994239032268524,0.018473852425813675,-0.09193933010101318,0.002525084186345339,-0.017591528594493866,0.1490236073732376,0.07750345021486282,0.07739030569791794,0.08915038406848907,0.046229925006628036,0.027401555329561234,0.12578800320625305,-0.05842909216880798,-0.2822085916996002,-0.15241952240467072,-0.22417201101779938,-0.12529361248016357,-0.07214768975973129,-0.08470574766397476,-0.09004151821136475,0.11208993941545486,0.007860385812819004,0.24381902813911438,0.0929240882396698,0.14034904539585114,-0.06427587568759918,-0.022124065086245537,0.08410230278968811,0.16166044771671295,0.09132308512926102,-0.05467965453863144,-0.07363788783550262,-0.06270084530115128,-0.04672042280435562,0.17133735120296478,-0.04940886050462723,-0.10552559792995453,-0.12785546481609344,-0.0805681124329567,0.15649914741516113,0.11175477504730225,-0.1407570242881775,-0.11071058362722397,-0.020112553611397743,0.004027137998491526,-0.09463392198085785,-0.062188804149627686,-0.18644081056118011,0.06677640974521637,0.03251810371875763,0.03593708202242851,-0.005014946684241295,-0.06210922822356224,0.01894768327474594,0.07415588945150375,-0.036055777221918106,-0.0920843705534935,-0.028913646936416626,0.1836756467819214,0.09127628058195114,0.019486531615257263,-0.14111098647117615,0.021736567839980125,-0.06389999389648438,0.019271820783615112,0.10559152066707611,-0.07699044048786163,0.10130319744348526,-0.07027909904718399,-0.12409725040197372,-0.0008317496394738555,-0.03117148019373417,0.16700583696365356,-0.1398531049489975,-0.012867056764662266,0.09758474677801132,-0.08818652480840683,-0.14320652186870575,-0.018504474312067032,0.032415635883808136,-0.18407069146633148,-0.013548746705055237,-0.08887389302253723,0.1423782855272293,-0.016152137890458107,-0.06797339767217636,-0.052794959396123886,-2.9241862297058105,0.21412065625190735,-0.016027046367526054,-0.22028867900371552,-0.0023521273396909237,0.1411483734846115,0.0036831602919846773,0.07818608731031418,0.04641321673989296,-0.2726489305496216,0.03593510389328003,0.05249285697937012,0.26667970418930054,-0.07113515585660934,-0.02243076078593731,-0.040144458413124084,0.03291413187980652,0.0598720908164978,-0.07980919629335403,-0.05290648341178894,-0.05536232143640518,-0.11427832394838333,0.13632629811763763,0.10335774719715118,0.04298799857497215,0.0261110607534647,0.23175479471683502,0.12901432812213898,0.06279631704092026,-0.03965826705098152,-0.08523774892091751,-0.010189201682806015,-0.1385108232498169,0.006792186759412289,0.07470254600048065,-0.03289139270782471,0.047648392617702484,0.20155611634254456,-0.1098736822605133,-0.0619921013712883,0.08032645285129547,-0.04560602083802223,0.05858840048313141,-0.2160426825284958,-0.08922310173511505,0.014803805388510227,0.10451743751764297,0.18649519979953766,0.07533448934555054,-0.0846000388264656,-0.13519208133220673,-0.06950581073760986,0.020584888756275177,0.09859772026538849,-0.12939253449440002,0.03547433018684387,-0.03422949090600014,-0.23318912088871002,-0.0010276404209434986,-0.24846000969409943,-0.044488903135061264,0.03448783606290817,-0.32740986347198486,-0.027037737891077995,-0.023020481690764427,-0.0020329600665718317,-0.12284835427999496,0.045213378965854645,-0.16676393151283264,-0.1564103215932846,0.023788873106241226,-0.07718164473772049,0.028070734813809395,-0.05938975140452385,-0.21052540838718414,0.04366801306605339,0.0304853618144989,0.030920393764972687,-0.01691311225295067,0.06396804749965668,-0.004946965724229813,-0.07453883439302444,0.06219538673758507,-0.013758663088083267,-0.07812154293060303,-0.017738597467541695,-0.0064922478049993515,-0.25767382979393005,0.18321159482002258,-0.10577381402254105,0.026205826550722122,0.05653298273682594,0.00545103196054697,-0.028485435992479324,-0.060050465166568756,0.12793295085430145,-0.08258848637342453,-0.17525744438171387,0.008215983398258686,-0.0455549918115139,0.15337200462818146,0.03556111454963684,-0.05097927898168564,0.2090369164943695,-0.04991111904382706,0.11096175760030746,-0.12538623809814453,0.081568144261837,0.2161794900894165,0.11782733350992203,0.13291391730308533,-0.01753181219100952,0.010322457179427147,0.11875531077384949,0.03380117937922478,-0.010155700147151947,0.04274768382310867,0.18396683037281036,-0.04370659589767456,-0.057751335203647614,-0.05546809360384941,-0.04649645835161209,-0.13634006679058075,-0.12390520423650742,-0.01491630170494318,0.012862607836723328,0.1521073430776596,0.07393169403076172,-0.17983348667621613,0.10348434001207352,-0.0007393626146949828,-0.052886687219142914,0.09470143169164658,0.012275545857846737,-0.0114752147346735,-0.050548333674669266,-0.07697002589702606,-0.13842026889324188,0.04923887550830841,0.06468987464904785,0.07480192184448242,0.006444606930017471,0.1344180554151535,-0.059776101261377335,-0.15753692388534546,0.030245322734117508,-0.16112318634986877,0.010853210464119911,-0.16368308663368225,-0.12020328640937805,-0.0030267732217907906,0.011802216991782188,0.003761048661544919,-0.031729806214571,0.09521391242742538,-0.07376140356063843,-0.13711465895175934,0.05797187611460686,0.10269904136657715,-0.08020932972431183,0.029990188777446747,0.1209011897444725,0.0798880085349083,0.0342312753200531,0.05209656059741974,0.02297605574131012,0.020125476643443108,0.0020752560812979937,-0.10534688085317612,0.06369278579950333,-0.03416204825043678,-0.07333220541477203,-0.045168474316596985,0.06556443870067596,0.14531828463077545,0.14507730305194855,-0.046076200902462006,-0.07468806952238083,-0.06876280903816223,0.10072784125804901,-0.17865440249443054,-0.0025593817699700594,-0.10798121988773346,-0.24220043420791626,0.1756419688463211,0.09105142951011658,0.22392550110816956,0.25290825963020325,0.07824701815843582,0.06091921031475067,0.1214856207370758,0.19357961416244507,-0.10465478897094727,-0.025104425847530365,0.053146153688430786,-0.005107726436108351,0.12102477997541428,-0.020770547911524773,0.022186273708939552,0.014442828483879566,-0.2315884232521057,0.2804529070854187,-0.2246994823217392,-0.027703942731022835,-0.055423762649297714,0.037189677357673645,-0.007453726138919592,0.017149610444903374,-0.1478998363018036,-0.049155574291944504,0.03447975218296051,-0.11543775349855423,0.01639552228152752,0.042253460735082626,0.24782997369766235,0.004438060335814953,0.039941102266311646,-0.0019833932165056467,-0.14203645288944244,-0.12513095140457153,-0.060629114508628845,-0.015602675266563892,-0.16104841232299805,0.03491445630788803,0.09536714851856232,0.006316011771559715,0.14486540853977203,-0.0160377137362957,0.16099326312541962,-0.04616041108965874,0.08088106662034988,-0.04953901469707489,-0.07998120784759521,0.11196259409189224,-0.20819030702114105,-0.1929399073123932,-0.04238663613796234,0.019197020679712296,-0.07517358660697937,-0.13892412185668945,-0.00025456646108068526,-0.23368653655052185,-0.014240126125514507,0.1388998180627823,-0.027714736759662628,0.13677653670310974,-0.037156324833631516,-0.015964018180966377,-0.23727013170719147,0.101314976811409,0.006677406374365091,0.05195925384759903,0.18937461078166962,-0.138178750872612,0.12410403043031693,0.10720038414001465,0.1209820881485939,0.007151847705245018,0.176958829164505,-0.09093348681926727,0.05013033747673035,0.07128096371889114,0.01757446490228176,0.11302775144577026,-0.049974530935287476,0.012028519995510578,0.02127591334283352,0.013062570244073868,0.0115956487134099,-0.07500244677066803,0.08355198055505753,-0.05570196360349655,0.16161076724529266,0.05795024335384369,6.219180107116699,-0.12580423057079315,0.149423748254776,-0.21667009592056274,0.10527142137289047,-0.11262641102075577,0.048141270875930786,0.09826134890317917,0.09222858399152756,0.06895949691534042,0.06956630945205688,-0.007538594305515289,0.06396795809268951,-0.002091157017275691,0.005521523300558329,0.013028612360358238,0.028325237333774567,-0.022728295996785164,0.016532396897673607,-0.056289248168468475,-0.0043870736844837666,0.016628481447696686,0.0369042232632637,0.008365148678421974,-0.10920935124158859,-0.028162244707345963,0.025077275931835175,-0.07370396703481674,-0.1476583182811737,-0.20616093277931213,-0.01778082735836506,-0.02788296341896057,-0.009802785702049732,0.03508510813117027,-0.06704779714345932,0.012833693996071815,0.15327274799346924,0.08821243047714233,0.03315692022442818,0.08276992291212082,0.049018654972314835,0.008136686868965626,-0.07530661672353745,-0.11393535882234573,-0.11492336541414261,-0.05977689474821091,-0.04890434816479683,0.08356782793998718,-0.014447268098592758,0.0126443887129426,0.09074068814516068,-0.15184375643730164,0.1438838243484497,-0.07999357581138611,0.12891973555088043,0.07400646805763245,0.01954149268567562,-0.2544679343700409,0.25758373737335205,0.11197655647993088,-0.058748602867126465,-0.06453299522399902,0.008867715485394001,0.08479151129722595,-0.028858952224254608,0.0868915468454361,0.17043808102607727,-0.20642593502998352,0.053535573184490204,0.05598840489983559,0.08598944544792175,-0.037612803280353546,0.036633916199207306,0.09516546130180359,0.05793965980410576,-0.00974377989768982,0.03521496802568436,-0.18737149238586426,-0.08980689197778702,-0.3774541914463043,-0.13423019647598267,-0.05463213846087456,0.22465848922729492,-0.08403641730546951,-0.05922320857644081,0.02278175763785839,0.06838470697402954
Rep1,-0.022816801443696022,-0.24994587898254395,-0.19497175514698029,0.011468632146716118,0.05231650918722153,-0.06902716308832169,0.022579945623874664,-0.15127630531787872,-0.07440870255231857,0.2668810188770294,0.21513891220092773,-0.00425127986818552,-0.10058847814798355,0.07607198506593704,0.11624112725257874,-0.09406180679798126,0.0701974481344223,0.04943203553557396,0.02962372824549675,0.06648389250040054,-0.015781618654727936,-0.18060682713985443,0.01119973324239254,0.015484272502362728,0.11747266352176666,-0.16533023118972778,0.009134145453572273,-0.08176396042108536,-0.11077839881181717,0.10712768137454987,0.20724990963935852,-0.13567999005317688,-0.07474838197231293,-0.07001499086618423,-0.0469793900847435,0.058160893619060516,-0.02985640987753868,-0.06326403468847275,-0.027325976639986038,0.010235514491796494,0.01507721096277237,-0.08826278150081635,-0.08156320452690125,-0.12627172470092773,-0.12569308280944824,0.1672641634941101,-0.06938131898641586,-0.15120266377925873,-0.013292661868035793,0.08641675859689713,0.23873430490493774,-0.057003945112228394,0.011216262355446815,0.17287448048591614,0.31985729932785034,-0.0017883384134620428,0.18662025034427643,-0.09081189334392548,0.03832221403717995,-0.020449835807085037,0.030729852616786957,-0.20004676282405853,-0.010892089456319809,0.09879656136035919,0.10945107787847519,0.07176314294338226,-0.10119976103305817,0.016010835766792297,-0.21490997076034546,-0.02231445536017418,0.07288174331188202,-0.06757380813360214,-0.07959549874067307,0.1152200922369957,0.0532882958650589,0.0912657231092453,-0.06568466126918793,-0.09611443430185318,-0.0520513653755188,0.20470194518566132,-0.018396221101284027,0.16738316416740417,-0.03353589028120041,0.08217229694128036,0.13097630441188812,-0.03641503304243088,0.08850459009408951,-0.051140811294317245,0.03403880447149277,-0.15612231194972992,0.09021232277154922,0.005868074484169483,-0.014776616357266903,-0.12512940168380737,0.17755964398384094,-0.08603943884372711,0.1729530543088913,0.00556469801813364,-0.240087628364563,0.17681559920310974,-0.07921294122934341,0.0030586221255362034,0.08631252497434616,0.1122468113899231,0.031454041600227356,0.018486831337213516,-0.06465071439743042,-0.07537803798913956,-0.04211348295211792,-0.11635196954011917,0.010515645146369934,-0.16126199066638947,0.05044751986861229,0.03676226735115051,0.07036066800355911,0.11608536541461945,-0.11452348530292511,-0.018239352852106094,-0.005129117053002119,0.03905130922794342,-0.03184365853667259,0.037322405725717545,-0.03657197579741478,-0.05897429212927818,0.038713015615940094,-0.03705952316522598,-0.03477241098880768,0.007099219132214785,0.053481653332710266,-0.02016923390328884,-0.032887574285268784,-0.09054885804653168,-0.0830240398645401,-0.12520495057106018,0.3579563498497009,-0.023053370416164398,-0.04854738339781761,-0.13613276183605194,0.0061643426306545734,0.030888738110661507,0.04862792789936066,0.08625839650630951,0.12515906989574432,-0.19350583851337433,0.020601946860551834,-0.033949363976716995,0.13887163996696472,-0.0023162036668509245,0.04590064659714699,0.038776785135269165,0.15706075727939606,0.032403364777565,0.0063614859245717525,-0.01536428090184927,-0.019201096147298813,-0.06537540256977081,-0.03352324292063713,0.02510249987244606,-0.042237162590026855,0.06994158774614334,0.009346550330519676,0.030197689309716225,-0.04712531715631485,0.08723944425582886,-0.1678769290447235,0.055518873035907745,0.15254826843738556,-0.125880628824234,0.09389682859182358,0.0431385338306427,-0.08874202519655228,-0.07353069633245468,0.023561082780361176,-0.13648022711277008,0.11479628831148148,-0.09318982064723969,0.07953611761331558,-0.0954485833644867,0.08330130577087402,-0.11168167740106583,-0.06616051495075226,-0.12020296603441238,0.02872357703745365,-0.07802285254001617,0.18154685199260712,-0.027083009481430054,0.015854084864258766,0.01703314669430256,-0.050236959010362625,0.00807198230177164,-0.051417745649814606,-0.15308022499084473,0.00892019085586071,-0.04862075671553612,-0.056582871824502945,0.02868497185409069,-0.032087042927742004,0.2004459798336029,0.09948369860649109,0.0937553346157074,0.04052204638719559,0.08979235589504242,0.05519259348511696,0.1467997431755066,-0.08513452112674713,-0.31347087025642395,-0.07636918872594833,-0.12742792069911957,-0.12839549779891968,-0.12397632002830505,-0.07534341514110565,-0.018115121871232986,0.08000648766756058,0.021329868584871292,0.14283804595470428,0.0983065664768219,0.1109125018119812,-0.01994936168193817,-0.02526765689253807,0.08941063284873962,0.14951682090759277,0.10600121319293976,-0.002117367461323738,0.027886690571904182,0.01248103752732277,-0.053073327988386154,0.11090940237045288,-0.06917054951190948,-0.0682837963104248,-0.07406243681907654,-0.06028672680258751,0.16590775549411774,0.07542157918214798,-0.12206762284040451,-0.06044381484389305,-0.025052841752767563,0.11674506962299347,-0.12089516222476959,-0.13325755298137665,-0.25312912464141846,0.08005953580141068,0.00936329085379839,-0.014344727620482445,0.003578689182177186,-0.17738981544971466,0.022938424721360207,0.06485362350940704,0.022072890773415565,-0.07026202231645584,-0.032255712896585464,0.2283099889755249,0.2385379672050476,0.04972010850906372,-0.1089591458439827,0.0416874997317791,-0.08029764145612717,-0.0016830289969220757,0.08780096471309662,-0.008135901764035225,0.03695470094680786,-0.11424700915813446,-0.13803327083587646,0.06277724355459213,-0.007497858256101608,0.16375841200351715,-0.09687089174985886,-0.029814543202519417,0.09098025411367416,-0.12538515031337738,-0.1066458523273468,-0.03998236358165741,0.07605978101491928,-0.1550673097372055,-0.03990707919001579,-0.03264647349715233,0.08892679959535599,0.0802777111530304,0.08523058146238327,-0.09534227848052979,-2.8567349910736084,0.17245428264141083,-0.0598682202398777,-0.06598777323961258,-0.020885266363620758,0.13467422127723694,-0.03884298726916313,0.016234474256634712,0.1170060858130455,-0.2156386822462082,0.0739983543753624,0.03414766117930412,-0.06449329853057861,-0.06962233781814575,-0.04650932177901268,-0.1083773523569107,0.051487211138010025,0.1199420690536499,-0.19269543886184692,-0.06430793553590775,-0.0291256345808506,-0.0994243398308754,0.1023620218038559,0.031633105129003525,-0.0007285008323378861,0.1502993255853653,0.13041824102401733,0.12861686944961548,0.08426174521446228,-0.03497219458222389,-0.07567476481199265,-0.043370623141527176,-0.20107953250408173,0.029550710693001747,0.2241411954164505,0.16507713496685028,0.16974234580993652,0.20158551633358002,-0.06582770496606827,-0.019997023046016693,0.0030277464538812637,-0.10828988999128342,0.04118359088897705,-0.2744825780391693,-0.11567316204309464,0.021174723282456398,0.031234126538038254,0.10902532190084457,0.10624506324529648,-0.13703973591327667,-0.04707859829068184,-0.10257177799940109,-0.07496869564056396,0.09367723017930984,-0.053641945123672485,0.0046963756904006,-0.0042557623237371445,-0.31827253103256226,0.06924346089363098,-0.1978922337293625,-0.021445920690894127,0.041932277381420135,-0.3269348442554474,0.008579954504966736,0.06447536498308182,-0.07186099141836166,-0.08922925591468811,-0.01696394383907318,-0.024650460109114647,-0.15388551354408264,0.014833866618573666,0.008877395652234554,0.127088263630867,-0.0546179935336113,-0.2415238469839096,-0.03424655273556709,0.06143098324537277,0.02052641473710537,-0.05581231042742729,0.027910180389881134,0.05055639520287514,-0.023814694955945015,0.15066349506378174,-0.026762893423438072,-0.0967993512749672,-0.05922051519155502,-0.019558098167181015,-0.17272160947322845,0.16806606948375702,-0.049569517374038696,0.11537954211235046,0.12244237959384918,0.08010707795619965,-0.038031160831451416,0.0014443161198869348,0.1464962661266327,-0.1007516011595726,-0.15767687559127808,-0.07348836213350296,0.010518711991608143,0.059299662709236145,0.09214825928211212,-0.045981913805007935,0.2556699812412262,-0.1360444724559784,0.04264890030026436,-0.28501826524734497,0.014781774953007698,0.13553442060947418,0.18435166776180267,0.058311931788921356,0.02441527135670185,-0.006641699466854334,0.022533608600497246,0.09650158137083054,-0.10176892578601837,0.045063700526952744,0.0735212117433548,-0.04795992001891136,-0.06647881120443344,-0.06080476567149162,-0.0659867376089096,-0.15383432805538177,-0.12355012446641922,0.019395312294363976,0.0094700763002038,0.14660337567329407,0.04307616129517555,-0.23225851356983185,0.06736442446708679,0.07906807214021683,0.01676098443567753,0.08866395801305771,-0.033465586602687836,-0.05786969140172005,-0.14602108299732208,-0.003929504193365574,-0.10067985951900482,0.07325880229473114,0.06634820997714996,0.07594535499811172,-0.03619109466671944,0.2660611867904663,-0.1192968413233757,-0.13772061467170715,0.04366810992360115,-0.17072856426239014,-0.02954893372952938,-0.12502160668373108,-0.09391483664512634,0.05588778853416443,-0.09358053654432297,0.043827202171087265,-0.10699155926704407,0.03639983385801315,-0.07721918076276779,-0.09802727401256561,0.010814959183335304,0.14721813797950745,0.053022392094135284,0.03656930476427078,0.1772947460412979,0.040549397468566895,0.013562838546931744,0.09868636727333069,0.008854481391608715,-0.060621559619903564,-0.04297799617052078,-0.061419665813446045,0.057520169764757156,-0.06824271380901337,-0.10429397970438004,-0.16643288731575012,0.12811237573623657,0.07847457379102707,0.12473003566265106,-0.055533915758132935,-0.06612153351306915,-0.0786033347249031,-0.0010891916463151574,-0.10868819802999496,0.0120033398270607,-0.03227027505636215,-0.1846102625131607,0.15464921295642853,0.06318380683660507,0.11144885420799255,0.21527254581451416,0.07655244320631027,0.03552103787660599,0.2014039307832718,0.15195679664611816,-0.1401766836643219,-0.07498476654291153,0.08058663457632065,-0.0044254763051867485,0.12628896534442902,-0.024790242314338684,0.02472243830561638,0.08385259658098221,-0.23702524602413177,0.2590596377849579,-0.1575295776128769,-0.002172475913539529,0.0024904641322791576,0.006827461067587137,0.0389818511903286,0.012297743931412697,-0.12384472042322159,0.05796545743942261,-0.10559795796871185,-0.14469373226165771,-0.06506504118442535,0.045116301625967026,0.24898025393486023,-0.05689780041575432,0.024563537910580635,-0.12169057875871658,-0.013939530588686466,-0.13767237961292267,-0.27438339591026306,-0.008100190199911594,-0.1057378426194191,0.1097412109375,0.09591709822416306,0.062420643866062164,0.12864896655082703,-0.014523755759000778,0.09605811536312103,-0.013120234943926334,0.036303214728832245,-0.08408518880605698,-0.06458722054958344,0.09813996404409409,-0.19005069136619568,-0.20796076953411102,-0.10802576690912247,0.02451770007610321,-0.08097506314516068,-0.022490130737423897,0.017619255930185318,-0.17217659950256348,-0.03594715893268585,0.19419975578784943,0.009174748323857784,0.07303933799266815,-0.01763962395489216,-0.07432049512863159,-0.05253220349550247,0.027354206889867783,0.006364041473716497,-0.02166554518043995,0.1688944548368454,-0.14887672662734985,0.08895239979028702,0.09527991712093353,0.13510815799236298,-0.06668008118867874,0.18124131858348846,-0.018223417922854424,0.1317635476589203,0.15002599358558655,-0.07919812947511673,0.07861635833978653,-0.07328317314386368,0.10487039387226105,0.03716001287102699,0.017790861427783966,-0.01649814285337925,-0.07431791722774506,0.17054037749767303,0.018919967114925385,0.08358853310346603,0.05903811752796173,5.613619327545166,-0.16763411462306976,0.1265350580215454,-0.1531302034854889,-0.013685978949069977,-0.10680664330720901,0.10662157088518143,0.07662525027990341,0.12636415660381317,0.03999380022287369,-0.017200132831931114,0.012174486182630062,-0.05927149951457977,0.08574564754962921,-0.057141099125146866,0.03506975248456001,0.09613145887851715,0.05190980061888695,0.009889975190162659,0.01945166289806366,-0.15048812329769135,-0.006365790963172913,-0.06995747238397598,0.04569375142455101,-0.01660468615591526,-0.02257329225540161,-0.013209214434027672,-0.09068499505519867,-0.13719208538532257,-0.1417098194360733,-0.08625295758247375,0.006014826241880655,-0.04083593189716339,-0.0033409518655389547,-0.005047983955591917,-0.006279755383729935,0.2605244517326355,-0.05932244285941124,0.12482380121946335,0.07025720179080963,0.010382791049778461,0.17821131646633148,-0.050168201327323914,-0.0866633728146553,-0.0666363388299942,-0.034688856452703476,-0.01857152208685875,0.10078036040067673,0.027709001675248146,-0.001903741154819727,0.18361274898052216,-0.06420844048261642,0.10028968006372452,-0.08609381318092346,0.08027638494968414,-0.0445907786488533,0.006336122285574675,-0.035981982946395874,0.1233755424618721,0.0959111824631691,-0.036226797848939896,-0.0037123782094568014,-0.0497700572013855,-0.018002385273575783,-0.05420864745974541,0.1511366367340088,0.16589848697185516,-0.0900973528623581,0.08838875591754913,0.10271143168210983,0.09629201143980026,0.032902106642723083,0.13016006350517273,-0.03369782119989395,0.07934366166591644,0.02581356279551983,0.003560100682079792,-0.16473209857940674,-0.09196249395608902,-0.19210904836654663,-0.15837028622627258,-0.030888643115758896,0.10090989619493484,-0.10972891002893448,-0.1431332677602768,-0.049925435334444046,0.09224067628383636
Rep2,0.022460633888840675,-0.2985960841178894,-0.1681830734014511,0.03082302398979664,0.1059579998254776,0.02826549857854843,0.06924324482679367,-0.06611694395542145,-0.05243214964866638,0.31807053089141846,0.17557480931282043,-0.08146088570356369,-0.09405429661273956,0.09078729152679443,0.1573493331670761,-0.0446113720536232,0.10526542365550995,0.11453418433666229,0.009142490103840828,0.07662619650363922,-0.05894135683774948,-0.16510100662708282,-0.015024544671177864,0.04528358578681946,0.10660427808761597,-0.13819856941699982,0.09284867346286774,-0.04266699030995369,-0.11268064379692078,-0.021678294986486435,0.19690071046352386,-0.10618311166763306,-0.08492765575647354,-0.08720612525939941,0.027137670665979385,-0.015540608204901218,0.029652800410985947,-0.07489447295665741,0.030261211097240448,-0.011816718615591526,-0.05732640624046326,-0.075705386698246,-0.052370697259902954,-0.08664323389530182,-0.09930337965488434,0.0710960328578949,-0.005025216843932867,-0.17604860663414001,-0.06553332507610321,0.07564307749271393,0.3383671045303345,-0.04870515316724777,0.03736445680260658,0.2612576484680176,0.3126978576183319,-0.0735817700624466,0.31605586409568787,-0.09439872205257416,-0.0030030107591301203,-0.02864193730056286,0.027299335226416588,-0.1657339632511139,-0.039764296263456345,0.12575922906398773,0.10686522722244263,0.15921252965927124,-0.10840202122926712,-0.025446554645895958,-0.20886802673339844,0.02951749414205551,0.14697743952274323,-0.08009975403547287,-0.11125354468822479,0.06936337053775787,0.03007293865084648,0.031104549765586853,-0.06958456337451935,-0.03707638010382652,-0.06664520502090454,0.1537047028541565,-0.014902590773999691,0.269209623336792,0.01479919720441103,0.07969573885202408,0.10869782418012619,0.015948891639709473,0.164085254073143,-0.07714346051216125,-0.014593337662518024,-0.21850812435150146,0.07814260572195053,-0.02855941280722618,-0.03628747910261154,-0.0693802461028099,0.19246694445610046,-0.12810809910297394,0.12923897802829742,-0.019645048305392265,-0.241485595703125,0.1484352946281433,-0.11309337615966797,0.03784308582544327,0.0573970302939415,0.11302845180034637,0.04209265112876892,-0.024287434294819832,-0.08620232343673706,-0.07621448487043381,0.001706515671685338,-0.09978699684143066,-0.07393549382686615,-0.19318893551826477,0.04620909318327904,0.04671052098274231,0.03064907155930996,0.1171223595738411,-0.061087466776371,-0.04773873835802078,-0.03660174831748009,0.015448094345629215,-0.07182825356721878,0.011180270463228226,-0.006039232015609741,-0.06535554677248001,0.06467970460653305,-0.031989678740501404,0.0040697515942156315,0.04391997307538986,0.028965666890144348,-0.06427524983882904,-0.0014402082888409495,-0.1280435472726822,-0.12224136292934418,-0.02469480223953724,0.3161851763725281,-0.06629089266061783,-0.06407614052295685,-0.13720369338989258,-0.0373675599694252,-0.014102854765951633,0.07732629030942917,0.053427137434482574,0.15146216750144958,-0.23164694011211395,0.16679875552654266,-0.05424658581614494,0.16923363506793976,-0.013045542873442173,0.035809848457574844,0.04084152355790138,0.16948337852954865,0.031272780150175095,-0.0636877790093422,0.028002768754959106,-0.006228444632142782,-0.04403652623295784,0.04974847286939621,0.023934101685881615,-0.006232511717826128,0.1118447482585907,0.048534560948610306,-0.024013862013816833,-0.012538245879113674,0.0920911356806755,-0.18332813680171967,0.033451393246650696,0.1670275628566742,-0.1032443642616272,0.0905366986989975,0.04461584985256195,-0.09132728725671768,-0.03309730440378189,-0.043394122272729874,-0.06151973456144333,0.08396993577480316,-0.15663672983646393,0.07558107376098633,-0.03912576287984848,0.10097212344408035,-0.08069474250078201,-0.13144148886203766,-0.05149852856993675,0.006963115651160479,-0.08906324952840805,0.146518275141716,0.03377658873796463,-0.015856623649597168,0.05011662095785141,-0.014828990213572979,0.03325752913951874,-0.10937771946191788,-0.14183472096920013,0.017583604902029037,-0.011449890211224556,-0.07624663412570953,-0.0452730767428875,-0.0948224663734436,0.19077950716018677,-0.0011066056322306395,-0.018442152068018913,0.09060955047607422,0.08686891943216324,0.06708858907222748,0.08491037040948868,-0.04701083526015282,-0.31047335267066956,-0.14464645087718964,-0.1972590833902359,-0.04421835392713547,-0.11874457448720932,-0.06783375144004822,-0.024398060515522957,0.1171559989452362,0.017557084560394287,0.19037477672100067,0.08901597559452057,0.12963666021823883,-0.07840966433286667,-0.008440103381872177,0.11500675231218338,0.1532210409641266,0.10644504427909851,-0.013930774293839931,-0.01564992591738701,-0.05700366571545601,-0.0800495371222496,0.16656264662742615,-0.027522247284650803,-0.01951676234602928,-0.15334507822990417,-0.043889038264751434,0.18535177409648895,0.09471601992845535,-0.14572550356388092,-0.0797828957438469,-0.0588676743209362,0.08794309198856354,-0.11531875282526016,-0.13088323175907135,-0.22479255497455597,0.12633322179317474,0.04916775971651077,-0.023571647703647614,-0.018843840807676315,-0.16913583874702454,0.05498488247394562,0.020956795662641525,-0.03581513836979866,-0.12883290648460388,-0.012851507402956486,0.2185692936182022,0.23803502321243286,-0.0013222068082541227,-0.1365227997303009,-0.010292681865394115,-0.10820421576499939,0.06495065242052078,0.051733143627643585,-0.03217507153749466,0.05761333554983139,-0.09662910550832748,-0.15855801105499268,-0.008084910921752453,0.08045630156993866,0.08444269746541977,-0.1483936458826065,0.026471160352230072,0.08995962142944336,-0.06685029715299606,-0.135952889919281,0.009392663836479187,0.04664449766278267,-0.18245583772659302,-0.03562922030687332,-0.10707168281078339,0.09722686558961868,0.020675526931881905,-0.024207543581724167,-0.05501546338200569,-2.8719441890716553,0.2512860894203186,-0.0058235470205545425,-0.062032051384449005,-0.0587308295071125,0.13752111792564392,-0.03880784288048744,0.09554095566272736,0.09559687227010727,-0.25678694248199463,0.038767728954553604,0.08023758232593536,-0.11206810176372528,-0.0472441241145134,0.023111393675208092,-0.097191222012043,0.0542888380587101,0.162572979927063,-0.12986934185028076,-0.08446899056434631,-0.10229423642158508,-0.2024725079536438,0.01251030433923006,0.1571952998638153,0.039493244141340256,0.07409755140542984,0.18026168644428253,0.15840278565883636,0.07724229246377945,-0.020996952429413795,-0.07188203930854797,-0.02658761478960514,-0.20011039078235626,0.01041766069829464,0.19486479461193085,0.10385820269584656,0.14839789271354675,0.1487792432308197,-0.0598607175052166,0.021381545811891556,-0.0045670922845602036,-0.04519776627421379,0.05050310492515564,-0.21565373241901398,-0.15296687185764313,-0.022867592051625252,0.06696911156177521,0.1709149181842804,0.014077924191951752,-0.12584097683429718,-0.11864714324474335,-0.07025670260190964,0.0138481967151165,0.04577736556529999,-0.06336170434951782,-0.0075025917030870914,0.043647393584251404,-0.2754362225532532,0.06511874496936798,-0.15912313759326935,-0.041321028023958206,0.011521915905177593,-0.3376528322696686,0.017231415957212448,0.05989154055714607,-0.02723712846636772,-0.16611850261688232,0.02108963020145893,-0.05756523832678795,-0.17247357964515686,0.058655571192502975,-0.01763463392853737,0.12727592885494232,0.010496961884200573,-0.2165616750717163,-0.016531702131032944,0.021709317341446877,0.027170943096280098,-0.038795892149209976,0.06131334230303764,0.0343526229262352,-0.07827803492546082,0.19027364253997803,-0.08458589017391205,-0.07503289729356766,-0.04703814163804054,0.022684000432491302,-0.1336900293827057,0.20877279341220856,0.022985918447375298,0.09293770790100098,0.13536986708641052,0.017594866454601288,-0.1028812974691391,-0.13830676674842834,0.11190827190876007,-0.09237821400165558,-0.16269426047801971,0.01551626157015562,0.009099029935896397,0.18047475814819336,0.051863014698028564,-0.08285947889089584,0.28013232350349426,-0.0924631729722023,0.01764681003987789,-0.16768182814121246,0.056945011019706726,0.18701045215129852,0.14327174425125122,0.17832526564598083,0.028728270903229713,0.021972892805933952,0.06701366603374481,0.05021636560559273,-0.07998491823673248,0.0537211112678051,0.12021080404520035,0.02869560569524765,-0.016279932111501694,-0.11564174294471741,-0.07711172848939896,-0.10482271760702133,-0.05757637694478035,-0.055150024592876434,-3.460027801338583e-05,0.22881987690925598,0.07600454986095428,-0.22472062706947327,0.09356705844402313,0.0449802465736866,0.05082264170050621,0.03390030562877655,-0.07852787524461746,-0.03785184770822525,-0.1922871172428131,-0.007504581473767757,-0.12671494483947754,0.06946009397506714,0.09215656667947769,0.026477154344320297,-0.014319316484034061,0.18455572426319122,-0.09344542026519775,-0.18812070786952972,0.0594625398516655,-0.14021389186382294,-0.05170147493481636,-0.1838480830192566,-0.08522891253232956,0.04864862188696861,-0.020715640857815742,0.03504161909222603,-0.05179246887564659,0.042110804468393326,-0.0715390294790268,-0.10601907968521118,0.04859882965683937,0.11283445358276367,-0.04606468603014946,0.014376708306372166,0.20900461077690125,0.03887272998690605,0.026432063430547714,0.13949713110923767,0.018352095037698746,-0.053807567805051804,-0.028911465778946877,-0.019190248101949692,0.009327569045126438,0.0046404879540205,-0.03840282931923866,-0.18347159028053284,0.13903725147247314,0.1357349455356598,0.1082131564617157,-0.02728215977549553,-0.08839993178844452,-0.10903837531805038,0.09040708839893341,-0.21317195892333984,0.06425075978040695,-0.10781648010015488,-0.2037184238433838,0.17664343118667603,0.0929630771279335,0.1737845093011856,0.21341632306575775,0.03716443106532097,0.09728936851024628,0.1565195769071579,0.17336787283420563,-0.11928801238536835,-0.08405181765556335,0.07146187126636505,-0.01496713887900114,0.16816744208335876,-0.02328702062368393,0.006213898304849863,0.01963968575000763,-0.2593644857406616,0.3298606872558594,-0.11422226577997208,-0.04264209046959877,-0.07285146415233612,-0.03647051379084587,0.02228902280330658,0.05755345895886421,-0.07933219522237778,0.002499217167496681,-0.11193016171455383,-0.1529327929019928,-0.0657828226685524,0.028595514595508575,0.21598504483699799,0.03815048933029175,0.04534018784761429,-0.11439571529626846,-0.03239450976252556,-0.07285932451486588,-0.24600772559642792,-0.02920571155846119,-0.137226864695549,0.035201236605644226,0.11941196024417877,0.03196072205901146,0.13689270615577698,-0.0020963959395885468,0.08624380826950073,0.040761612355709076,0.06771210581064224,0.004739394877105951,-0.0906980037689209,0.13203904032707214,-0.21533292531967163,-0.1904384046792984,-0.0909283459186554,-0.01990930177271366,-0.12891343235969543,-0.06889679282903671,0.05809037759900093,-0.20881444215774536,-0.02083207480609417,0.124538354575634,-0.06409531086683273,0.1081363633275032,-0.0017758674221113324,-0.13418495655059814,-0.16390614211559296,0.01812097616493702,-0.012399164959788322,-0.02082446962594986,0.11167330294847488,-0.0934046134352684,0.11817792057991028,0.059961624443531036,0.11841895431280136,-0.09041783213615417,0.14733290672302246,-0.04253772646188736,0.07565080374479294,0.0887819305062294,-0.027804264798760414,0.1343969851732254,-0.02418190985918045,0.08403575420379639,0.03431452810764313,0.05400077998638153,-0.03258692845702171,-0.02536708302795887,0.1279677301645279,0.03224388509988785,0.09787137806415558,-0.02644122578203678,5.64460563659668,-0.15564914047718048,0.25677913427352905,-0.24146133661270142,-0.0057079242542386055,-0.11496821790933609,0.08764736354351044,0.045919813215732574,0.0763261690735817,0.025205988436937332,0.020148277282714844,-0.011176842264831066,0.0031828870996832848,-0.0067431144416332245,-0.08028479665517807,-0.0059371390379965305,0.04938928782939911,-0.01871933601796627,-0.0026092000771313906,-0.01727396808564663,-0.09173396229743958,-0.00843498669564724,-0.03349432721734047,0.06006588041782379,-0.06853339076042175,0.047321125864982605,-0.038206104189157486,-0.07692551612854004,-0.19148042798042297,-0.25430452823638916,-0.017842289060354233,0.03676255792379379,-0.05666033923625946,-0.006313812453299761,0.013716996647417545,0.00977596826851368,0.21520337462425232,0.019220100715756416,0.058890100568532944,0.09497388452291489,0.06426434218883514,0.08522611856460571,-0.10417536646127701,-0.03374922275543213,-0.0962551161646843,-0.0001778939040377736,-0.033366039395332336,0.0940358117222786,0.036171890795230865,-0.002069366630166769,0.13119865953922272,-0.06365765631198883,0.15770035982131958,-0.04541794955730438,0.044424694031476974,0.0021425909362733364,-0.023622114211320877,-0.10036008059978485,0.10833727568387985,0.14037840068340302,-0.10946889966726303,-0.06322477757930756,-0.012482398189604282,0.020634470507502556,-0.07315925508737564,0.0916278287768364,0.16608986258506775,-0.11136649549007416,0.04469616711139679,0.025958675891160965,0.03785296529531479,0.04938841983675957,0.11005812138319016,0.02847610041499138,0.017584320157766342,-0.06466899067163467,0.04708915576338768,-0.17781798541545868,-0.07319319248199463,-0.10196459293365479,-0.19886527955532074,-0.013098458759486675,0.20265349745750427,-0.10775662958621979,-0.08617714792490005,0.0585724413394928,0.06925442069768906
